
//<![CDATA[

// a few things don't have var in front of them - they update already existing variables the game needs
lanesSide = 1;
patchesAhead = 6;
patchesBehind = 4;
trainIterations = 15000;

var num_inputs = (lanesSide * 2 + 1) * (patchesAhead + patchesBehind);
var num_actions = 5;
var temporal_window = 2;
var network_size = num_inputs * temporal_window + num_actions * temporal_window + num_inputs;

var layer_defs = [];
layer_defs.push({
    type: 'input',
    out_sx: 1,
    out_sy: 1,
    out_depth: network_size
});
layer_defs.push({
    type: 'fc',
    num_neurons: 50,
    activation: 'relu'
});
layer_defs.push({
    type: 'fc',
    num_neurons: 25,
    activation: 'relu'
});
layer_defs.push({
    type: 'fc',
    num_neurons: 12,
    activation: 'relu'
});
layer_defs.push({
    type: 'regression',
    num_neurons: num_actions
});

var tdtrainer_options = {
    learning_rate: 0.001,
    momentum: 0.5,
    batch_size: 64,
    l2_decay: 0.05
};

var opt = {};
opt.temporal_window = temporal_window;
opt.experience_size = 3000;
opt.start_learn_threshold = 500;
opt.gamma = 0.8;
opt.learning_steps_total = 10000;
opt.learning_steps_burnin = 1000;
opt.epsilon_min = 0.08;
opt.epsilon_test_time = 0.01;
opt.layer_defs = layer_defs;
opt.tdtrainer_options = tdtrainer_options;

brain = new deepqlearn.Brain(num_inputs, num_actions, opt);

learn = function (state, lastReward) {
    brain.backward(lastReward);
    var action = brain.forward(state);

    draw_net();
    draw_stats();

    return action;
}

//]]>    
/*###########*/
if (brain) {
brain.value_net.fromJSON({"layers":[{"out_depth":100,"out_sx":1,"out_sy":1,"layer_type":"input"},{"out_depth":50,"out_sx":1,"out_sy":1,"layer_type":"fc","num_inputs":100,"l1_decay_mul":0,"l2_decay_mul":1,"filters":[{"sx":1,"sy":1,"depth":100,"w":{"0":0.033505337491954106,"1":-0.058547389194443085,"2":-0.12679552281518833,"3":-0.009610745529294909,"4":-0.04142106928863305,"5":0.036093511139441314,"6":-0.04227563827316387,"7":-0.11256416550259736,"8":-0.030020559955554724,"9":-0.01735211680076756,"10":-0.0541618153798679,"11":0.05361510103891449,"12":-0.029629793398759784,"13":0.040435807742674384,"14":-0.13363744123527135,"15":0.10248128218684782,"16":0.03341801916008,"17":-0.03600399894410596,"18":-0.151813562939833,"19":0.0722137607747877,"20":0.009182985544213916,"21":0.022264283939564627,"22":-0.022584635076705842,"23":0.0629994680561977,"24":-0.014829540982250167,"25":-0.040448459725763726,"26":-0.01415869137791862,"27":0.1161561501681201,"28":0.06651585486306481,"29":0.017044582946358335,"30":0.1226743617256814,"31":0.05725231350688505,"32":0.015989181037720297,"33":-0.10892936069013018,"34":0.09386129270345318,"35":-0.09503270173759729,"36":-0.11939152488395695,"37":0.07245289050037328,"38":0.019647151398273548,"39":0.13279541654455876,"40":0.05025803001228695,"41":0.07847294067418266,"42":0.0862971667378578,"43":0.08437422656091915,"44":-0.12097616967222123,"45":-0.07871948525132724,"46":-0.06377435234992479,"47":0.027532854528753203,"48":0.11358294003840708,"49":0.1786912840462778,"50":0.03588487168083779,"51":0.2061428894041904,"52":0.11761548619013891,"53":-0.18374810048780166,"54":-0.017542855830923132,"55":-0.13507261551258673,"56":-0.07077207384859534,"57":-0.0852703743034615,"58":0.11712815443466444,"59":0.08745988561505465,"60":-0.041216405959907484,"61":-0.02079608758391808,"62":0.22396221324943874,"63":-0.0009037209613070543,"64":-0.044249613405646385,"65":-0.09062873342677362,"66":0.02593995257609176,"67":0.03841814860407041,"68":0.026357657997804824,"69":0.056365931182289726,"70":-0.10320148447408033,"71":0.06886828278093643,"72":0.04727737370464333,"73":-0.07519436387327524,"74":-0.13781542747707728,"75":0.22156251737462693,"76":0.007819225131759294,"77":0.05784935637854426,"78":-0.030153736200486083,"79":-0.0031603628205398968,"80":-0.06699057614215854,"81":-0.12303784331561243,"82":0.04484280433121694,"83":0.01536713981615269,"84":-0.0639387749733606,"85":0.012708418025091862,"86":-0.00007584046013510667,"87":-0.060176362418934114,"88":-0.06387657682462797,"89":0.1828550035482225,"90":0.04923397806811837,"91":0.0672563595345247,"92":0.1118091336693613,"93":-0.03169664322646634,"94":0.01572269682411811,"95":0.0890329832443198,"96":0.04651902502178368,"97":-0.02982092181186378,"98":-0.03960654047446289,"99":0.04720032152246847}},{"sx":1,"sy":1,"depth":100,"w":{"0":-0.08467556825577734,"1":-0.1852550386254179,"2":0.011849262382144848,"3":0.19582475695152382,"4":-0.2663217928478482,"5":-0.022569344619952476,"6":0.05264722863509402,"7":0.09225941256372765,"8":0.0545696558278854,"9":-0.08808227613746684,"10":-0.04321401517927603,"11":0.10241390666156887,"12":0.09484852370344304,"13":-0.11762756932683097,"14":-0.03011797257003833,"15":0.10904805866588058,"16":0.16121400176314649,"17":-0.017851903207630897,"18":-0.0037543925042248976,"19":-0.09161716609244142,"20":-0.1730368100960451,"21":0.09542801442885576,"22":0.06404730187704931,"23":-0.039819431327129874,"24":0.08421724412879662,"25":0.07961007904983364,"26":0.03234966961636836,"27":0.0007823424319024682,"28":0.14563864919706862,"29":-0.041977242909226296,"30":0.037458093689145155,"31":-0.13024618821641948,"32":0.004956296155368201,"33":-0.07199220571009983,"34":-0.10609113129850109,"35":-0.1496939973452044,"36":0.09010554420367123,"37":-0.05405260003813952,"38":0.13308496853798144,"39":-0.010207879421799933,"40":-0.005637562231378595,"41":-0.0770862429932963,"42":-0.07977545892573853,"43":0.1467186049661138,"44":0.04541951692429827,"45":-0.09178619321564604,"46":0.0789751657953253,"47":0.016227929479655526,"48":-0.025884405181640917,"49":-0.07012293075021087,"50":0.1010639071600057,"51":0.08777098589503915,"52":0.04740915245141014,"53":0.010168875185381026,"54":-0.10738555651934058,"55":0.006569213409798987,"56":0.024608129477431028,"57":-0.02960607981486936,"58":0.07749318358588345,"59":-0.005830714772985782,"60":-0.14477838525865963,"61":-0.033376673734578845,"62":0.02725305729121965,"63":0.12638044263711845,"64":-0.1011392186659357,"65":-0.10281358409921099,"66":0.1994643430190884,"67":0.12160418352842499,"68":0.05624725072771584,"69":0.042339153290417826,"70":0.12730780822249188,"71":0.12057328823988737,"72":0.08534945968925418,"73":0.04080412515397795,"74":0.07282116744713862,"75":-0.030858538807161183,"76":-0.20617871534051022,"77":0.11761637427969336,"78":0.06643619645735245,"79":0.03137817325837319,"80":-0.018683546124281997,"81":-0.006038422528676833,"82":-0.0051174322599213265,"83":0.11145879965490622,"84":-0.18108547084458523,"85":0.03926737728855425,"86":-0.10469331014991853,"87":0.035181714694003684,"88":0.027206868771866604,"89":-0.1168477452125367,"90":-0.08118625603576873,"91":-0.06893900305521172,"92":0.1007351368950321,"93":0.07603674220125718,"94":-0.02278038366375941,"95":-0.001409584636707614,"96":-0.1645918591838837,"97":0.09741219905923879,"98":0.07819486371375767,"99":-0.028244111659142635}},{"sx":1,"sy":1,"depth":100,"w":{"0":-0.0448268135380779,"1":0.08500630133039361,"2":0.07009723487314587,"3":0.026568736890626235,"4":0.030851569112743504,"5":0.09131132050013312,"6":0.004423563088210146,"7":0.031376078985320396,"8":-0.24877861716254623,"9":-0.11217103696598468,"10":-0.17943726374454147,"11":-0.08700730116850516,"12":0.09113913971940091,"13":0.1020733215809749,"14":0.06207046376963315,"15":0.08155713153572874,"16":-0.03202456230194167,"17":-0.10318640890416995,"18":-0.12321884042987732,"19":0.04736181637947596,"20":0.013813735996997797,"21":-0.13840495935318345,"22":-0.042863838555486505,"23":-0.09310460117761901,"24":-0.07056747541050055,"25":0.04820598868693878,"26":0.24875812622737556,"27":-0.01531285398739466,"28":-0.025757660847004687,"29":0.007993283718260176,"30":0.08771382471864103,"31":0.060626126948907,"32":-0.01499218741004023,"33":0.06758441731372838,"34":-0.04653295152732375,"35":0.06804314341751296,"36":0.008082688466929843,"37":0.14961638454492668,"38":0.005833430111447862,"39":-0.18976871545418741,"40":-0.10193610552859499,"41":0.12382724402031361,"42":0.023022740998795095,"43":0.012129893525753926,"44":-0.1770789092013609,"45":0.11753306725317879,"46":-0.04104277708575524,"47":0.0851580065764695,"48":0.04317709949665507,"49":0.004510228189199391,"50":0.02768479396236161,"51":0.14667712383254866,"52":-0.11019957403228663,"53":-0.19334305652844935,"54":-0.10804931124924101,"55":-0.08511114194517475,"56":-0.03784409854108319,"57":-0.022228595102580545,"58":0.07454086898462343,"59":0.0578836827385755,"60":0.000727859096871424,"61":-0.14188725037856453,"62":-0.09327899907625609,"63":0.063869289868403,"64":0.04933861908652217,"65":-0.07091079350229239,"66":0.002799858573420217,"67":0.095385353889473,"68":0.1102985497924077,"69":-0.0012170544896020978,"70":0.0402163341332319,"71":0.005578797332634355,"72":0.23623807423282975,"73":0.0454310439258611,"74":-0.05045775939294413,"75":0.05903115198054318,"76":-0.02369885629819484,"77":0.11399834478098107,"78":-0.1164582913090364,"79":-0.061124588025083956,"80":-0.026649507133609657,"81":-0.09236381590484284,"82":-0.204208056478805,"83":-0.11958345096742078,"84":-0.2113950693001701,"85":-0.05206063884106271,"86":-0.03541759439353819,"87":-0.07026081023049875,"88":-0.12726617145619348,"89":-0.01897072897679968,"90":-0.07213134930404436,"91":0.08479745569465186,"92":-0.008316487559208892,"93":-0.09031634604208771,"94":0.26019329144202785,"95":-0.09232715599778861,"96":0.011992548130535144,"97":-0.02018275012309052,"98":0.06488074392210612,"99":-0.02053683637463677}},{"sx":1,"sy":1,"depth":100,"w":{"0":-0.05022853931113881,"1":0.23187936576445756,"2":-0.05613117956883133,"3":0.0011384751600869302,"4":0.16691820392358578,"5":-0.06555529397543694,"6":0.01669371533175757,"7":0.04310674713727267,"8":-0.1602484593255169,"9":0.13349195647904633,"10":-0.025674589670852756,"11":-0.036412604967729384,"12":0.08561383492095369,"13":-0.06184089969043898,"14":-0.03900987117811801,"15":-0.0036707435077811923,"16":0.026400982032562484,"17":-0.02770452685369101,"18":-0.04178559575135922,"19":0.21663094138724398,"20":0.22417968841026342,"21":-0.05153098820331949,"22":-0.1461589005686066,"23":-0.00004333851137535402,"24":0.2612269312897166,"25":0.02771961190038716,"26":-0.23625331624045412,"27":0.049016780790428094,"28":0.023183282218249154,"29":-0.031170850284916975,"30":0.12705126733740502,"31":-0.012982553770032572,"32":0.04032578988711743,"33":0.1359440362552587,"34":0.05346886382463142,"35":0.09404181951482678,"36":-0.033919012270716545,"37":0.1483019994156759,"38":-0.0381218461801793,"39":-0.0797058701667048,"40":0.14795158345608891,"41":-0.011286061544363199,"42":-0.14989138658998424,"43":-0.11727691214840191,"44":0.1332986054417824,"45":-0.14709111749282114,"46":-0.07149056501799667,"47":0.008244387072699328,"48":-0.004951525800726352,"49":0.10460067001384109,"50":-0.06208733329909784,"51":-0.04011114787318007,"52":-0.028709648210167957,"53":0.04987241375186038,"54":-0.15719118088494508,"55":0.12593447871543803,"56":-0.07520221168000175,"57":-0.03466383277676732,"58":-0.19613895688449642,"59":0.15511586158880605,"60":0.06721941337292159,"61":0.050033396406444386,"62":0.16407846100907833,"63":-0.09971056684533477,"64":0.005117624104743224,"65":0.11201556357539681,"66":0.09241697749154293,"67":0.10359140410570625,"68":0.19124851706501614,"69":0.14934144250444847,"70":0.12688112422056405,"71":-0.09952237110252228,"72":0.07281567005604854,"73":-0.03775680852166471,"74":-0.007603320753547008,"75":0.0015449705614167196,"76":0.10976115762158939,"77":0.041144357407169256,"78":0.15438405164992106,"79":-0.09304323712439677,"80":-0.020678967581446463,"81":-0.08963920058816058,"82":0.11887008453492959,"83":0.16682240370934012,"84":0.03250412016239138,"85":-0.04294915799111346,"86":0.1952144809885716,"87":-0.14588027450531013,"88":-0.1145193120741621,"89":0.08508750040966023,"90":-0.08630068556300205,"91":-0.10083901917179292,"92":0.08728058527007505,"93":-0.0324693284153394,"94":0.04096889643184184,"95":0.04619579548555198,"96":0.1051906106156347,"97":-0.07170389684248489,"98":-0.020957701870018098,"99":-0.029687834669007835}},{"sx":1,"sy":1,"depth":100,"w":{"0":-0.06522689569163821,"1":0.009584658731658743,"2":-0.005377687392168277,"3":-0.13804698142922314,"4":0.034508903797330424,"5":0.2343959527526596,"6":0.12313147633909752,"7":0.032606255770248706,"8":-0.01551718182641417,"9":0.0041641162317151295,"10":-0.027284002841262728,"11":0.04629073202078971,"12":-0.0841827523893215,"13":-0.07672590396994745,"14":-0.03295883554505705,"15":0.006367499015054696,"16":-0.09788219041640345,"17":0.014059077094008292,"18":0.0680322384513132,"19":-0.10993694633282526,"20":0.08006921153597844,"21":-0.08719237961762179,"22":0.11613302171027819,"23":-0.054876441360221115,"24":-0.08289776205184228,"25":0.14875942387282073,"26":0.15559321331524772,"27":-0.03614602415401391,"28":-0.0016672611133119405,"29":0.044104848634242425,"30":0.06836603750486105,"31":0.058970632560708,"32":0.07288395912131072,"33":0.03300584552962575,"34":-0.08871898883629599,"35":0.05547513338126174,"36":0.08403003480018588,"37":-0.04296752537170828,"38":0.052376677271083395,"39":0.07263491970090641,"40":-0.04342490943654877,"41":-0.09444811565295248,"42":-0.05121553196790204,"43":0.05930355145418885,"44":0.03600574262408311,"45":0.06515487806630454,"46":-0.011177891482305932,"47":0.004854383353882878,"48":-0.18336591197109903,"49":0.13342122617933536,"50":0.10463203697074928,"51":-0.009662119580812246,"52":-0.11170988503672279,"53":0.19003567964189988,"54":-0.07959306002241355,"55":-0.050228352520963464,"56":-0.033901905835022825,"57":-0.046019604446946964,"58":-0.22411165197994545,"59":0.13722755296608063,"60":0.014738505831646013,"61":-0.05706466608501532,"62":-0.04523368330816312,"63":-0.01935755408540512,"64":-0.05197096464989993,"65":0.10713669638979323,"66":-0.04089497457989524,"67":0.1056919813367132,"68":0.049046226481617265,"69":0.09347136314851584,"70":0.049591651601620095,"71":0.15501320012654796,"72":-0.020628573450894527,"73":-0.08419390991017102,"74":-0.049878624777414886,"75":0.015816991462486073,"76":-0.13530121557942248,"77":0.0576363296335265,"78":-0.08747156624914135,"79":0.141489559021192,"80":-0.051228523477062804,"81":-0.01101483676998353,"82":0.014582708466065394,"83":-0.023347294792883735,"84":-0.04565223146846082,"85":-0.05004599201837503,"86":0.08017472287020604,"87":0.1516232425828994,"88":-0.1435250630396031,"89":0.028327797247865855,"90":-0.09431031784588162,"91":-0.1235292963452578,"92":0.048594118272531656,"93":0.16979963892643724,"94":-0.024226522098588305,"95":0.061678014114675904,"96":-0.11897399042068309,"97":0.08756964116174817,"98":-0.07585971003825472,"99":-0.0560307025790455}},{"sx":1,"sy":1,"depth":100,"w":{"0":0.06810452303338094,"1":0.16349763837645062,"2":-0.07249693480202228,"3":0.025996318334049445,"4":-0.23795060186580608,"5":-0.1801640954308991,"6":0.055756919939356414,"7":-0.014661633172210135,"8":-0.05546862725734306,"9":-0.006480763670421554,"10":0.07543091912948142,"11":0.0838488584414487,"12":-0.1629780310795501,"13":0.15513611350738216,"14":0.24565786676630022,"15":-0.09529598836190346,"16":-0.11494509954054022,"17":0.057834695398397445,"18":-0.05757123476965273,"19":0.1905361477906547,"20":0.02666934382110639,"21":0.04343717656707703,"22":-0.1015555385038048,"23":0.03201009329551674,"24":0.08297726825084203,"25":-0.0008538918984852373,"26":-0.0176899736048547,"27":0.07429446505765636,"28":-0.1174283442822428,"29":0.07818650682587719,"30":0.0043175579588952614,"31":-0.049860419220666516,"32":-0.08424776352109821,"33":0.1515519331104641,"34":0.039026362452120086,"35":0.12764061394642684,"36":-0.16365451945875492,"37":-0.06797274601548917,"38":-0.18389779334560005,"39":0.02577883182272347,"40":0.15905417282616344,"41":0.14364584405904718,"42":0.05571701185571273,"43":0.10810163778031233,"44":0.0369410508300533,"45":0.015072093550644669,"46":-0.061731503433085956,"47":-0.1131744363358445,"48":-0.024287663122689363,"49":0.06886119701491283,"50":-0.04054415518855184,"51":0.038959175855061645,"52":0.08500756867789204,"53":0.05081295207509916,"54":-0.10130814861360952,"55":0.22076555540078413,"56":0.04631663830333953,"57":-0.09417985924873458,"58":-0.011193981710872125,"59":-0.13320126211184108,"60":-0.0036149499945963208,"61":-0.10681289975330883,"62":0.0682097631667091,"63":-0.07726879329782817,"64":0.026062849390373777,"65":0.09420457636107606,"66":0.003644388172714963,"67":0.0845015924509923,"68":-0.005809509093565663,"69":-0.1281914061266052,"70":0.09817991119879717,"71":0.06586105990767904,"72":0.02479586759086369,"73":-0.12769502042171327,"74":-0.11294040521631885,"75":-0.12227536321142701,"76":-0.057999270647674704,"77":0.16045387733455424,"78":0.04331003860059203,"79":-0.1556275635678824,"80":-0.11965912034297638,"81":-0.017686107623059548,"82":0.04188289183965465,"83":0.14087997458665535,"84":-0.17361080726382958,"85":-0.047123183469729144,"86":0.105680354049407,"87":-0.09071073836226183,"88":0.0722605124622386,"89":0.032682320161031904,"90":0.07532996783604597,"91":-0.17002847253450634,"92":-0.20104378046265012,"93":-0.09275949027223339,"94":0.1025200322411164,"95":0.1603503217799019,"96":-0.007325871924299924,"97":-0.066306769139953,"98":0.01278324171252632,"99":-0.06815304138844759}},{"sx":1,"sy":1,"depth":100,"w":{"0":0.11046958119769312,"1":0.11492287348535382,"2":0.1418116388744068,"3":-0.013475855328359692,"4":-0.00019665244597672854,"5":-0.08478848810926037,"6":-0.03455881613221636,"7":-0.03838158351307787,"8":0.037332512662453375,"9":-0.060003493792664064,"10":-0.014458069117295944,"11":0.1683321495915827,"12":0.021727526473928293,"13":0.06963975109535658,"14":-0.022436334747085243,"15":-0.12585541954566914,"16":-0.09557391623804731,"17":-0.005799159871032329,"18":0.04756213934086737,"19":0.11574172549990486,"20":-0.08922875730908708,"21":-0.09605915163025315,"22":-0.10207308078251003,"23":-0.15506191631398822,"24":0.02523910974604847,"25":0.155449900962293,"26":-0.013451466316158412,"27":0.0700037304732073,"28":0.12453795123286464,"29":-0.12746413707156365,"30":0.026250786907926895,"31":0.12353077848878974,"32":0.1701676113297452,"33":0.004584128831201475,"34":0.0376020465682817,"35":0.03927139836467644,"36":0.05134021813819714,"37":-0.07753068867739742,"38":0.16112643034393978,"39":0.015035050368845813,"40":-0.16809706828685095,"41":-0.009863633667723394,"42":0.03921451604445038,"43":-0.16548120770664124,"44":0.19128625481445652,"45":-0.04344464570072226,"46":-0.10675455509181526,"47":0.03385129074674163,"48":-0.11910757967394998,"49":-0.0032492126518777384,"50":0.0858637412348864,"51":0.0866691493302503,"52":0.043220969401257935,"53":-0.03245193585827385,"54":0.02027204945446813,"55":0.008576348866955534,"56":0.21949876722626122,"57":0.22771164012069525,"58":0.029953450521568874,"59":0.20314768166275202,"60":0.14380355433745595,"61":-0.012548703442482437,"62":0.15399645516952593,"63":-0.002050641312425646,"64":0.04795571595160751,"65":-0.10439861888336611,"66":-0.04780177312269766,"67":-0.12232247136157044,"68":-0.08947409701693128,"69":-0.0026373828505203345,"70":0.09836489299023177,"71":0.06220585537303915,"72":0.08488434078324257,"73":0.07504695710742774,"74":-0.005341191270204643,"75":-0.06627537805452614,"76":-0.0030019471250671676,"77":0.12777022560134105,"78":0.09566090581698967,"79":0.008201102387223833,"80":0.060488274169559375,"81":-0.04190992748980499,"82":0.03018162988268207,"83":0.08604161429883889,"84":-0.20943742206102317,"85":-0.1119987193817727,"86":0.028926078524956222,"87":-0.25047294143819776,"88":-0.039886518546436184,"89":-0.0358850150561716,"90":-0.18672954476589443,"91":0.04133844853963272,"92":0.03640514450678765,"93":-0.12064742052218859,"94":0.00973853538870521,"95":0.00456858505808885,"96":0.04436889238396285,"97":-0.044120900542095935,"98":0.02184707465369131,"99":0.09688817326268145}},{"sx":1,"sy":1,"depth":100,"w":{"0":-0.05558073355070355,"1":0.17224432584836244,"2":-0.08026364246925592,"3":0.06662767025179561,"4":0.20563505141497834,"5":0.024239809581506785,"6":0.04132150880059138,"7":-0.037002802376253426,"8":0.02609413480893086,"9":-0.1662845072265041,"10":-0.0758166551638564,"11":0.0029678813034603817,"12":-0.08813410290826314,"13":0.08982573055589388,"14":0.16106926810239436,"15":0.008817080361275494,"16":0.0733673662741062,"17":0.056040113195018004,"18":0.0875708222994047,"19":0.09427701156322559,"20":-0.018544585793566333,"21":-0.03425629313430305,"22":0.2588461601197173,"23":0.10149115837455924,"24":-0.0022682576401042804,"25":0.02427734456529286,"26":-0.10600199262454585,"27":0.05588272345937481,"28":0.0341795206506922,"29":0.12303515183435634,"30":-0.11172297638738507,"31":-0.03842154041383174,"32":-0.15106562545018196,"33":0.010383180434953808,"34":0.0756210396517474,"35":0.12302890092148182,"36":-0.051070709917322696,"37":-0.027962142952081884,"38":-0.006994693222678402,"39":0.008861695900047725,"40":0.06093347253909998,"41":0.10681478708867545,"42":0.18705800485434768,"43":0.10339669434231592,"44":0.07440300478915078,"45":0.052774276023266335,"46":-0.06700664102768299,"47":0.03252964396840148,"48":-0.03435943693018686,"49":-0.0376582499317632,"50":0.09742575142861155,"51":0.026576640298747414,"52":-0.002785112530254148,"53":0.050429698771098694,"54":0.1597913565731872,"55":0.1713008777213536,"56":0.13296285488864965,"57":-0.03766448533995047,"58":0.02904869734459735,"59":0.06568051831764274,"60":-0.18630793264835313,"61":-0.15820409158412907,"62":-0.0350187921932245,"63":-0.01833762010431093,"64":0.00893719864394211,"65":-0.026750043512208815,"66":0.05100216768353136,"67":-0.10126087999958945,"68":-0.07254727368869134,"69":0.08620117686067263,"70":0.09673011993280883,"71":-0.033683430622189314,"72":-0.10356334307619307,"73":-0.03837954828334488,"74":0.014688701614172902,"75":-0.07363237878074802,"76":0.1398072820909495,"77":0.04529406819620788,"78":0.08921492054133334,"79":-0.01965188110989589,"80":-0.0006074418303695878,"81":-0.10193603424328437,"82":0.024311537357854095,"83":-0.07514114705171042,"84":-0.10927968827634786,"85":-0.07624898084607022,"86":-0.10679507898469964,"87":0.15507507898206618,"88":-0.0020356074554196794,"89":-0.11137610140728915,"90":0.012756918983991561,"91":-0.07363324160664957,"92":0.14856656922641992,"93":0.03634138790923396,"94":-0.054632678919650665,"95":-0.007379467566856648,"96":-0.018638497007042728,"97":-0.0383116539674508,"98":-0.036547898037216725,"99":-0.05961707619155763}},{"sx":1,"sy":1,"depth":100,"w":{"0":0.1627948464504162,"1":0.24867386598529995,"2":0.056224179898618096,"3":-0.13373194056396526,"4":0.027983110825610225,"5":-0.0785466111516989,"6":0.03466109121851818,"7":0.022161364789839332,"8":-0.04703665666809422,"9":0.10470721327617866,"10":0.06526162681198536,"11":0.13526715748060314,"12":-0.20839577900326356,"13":-0.12937558110869776,"14":0.1344022468047308,"15":0.29930053629640074,"16":0.040960343881549226,"17":0.10373825549020045,"18":0.03362453470163896,"19":0.1194153898084306,"20":-0.03322594301826352,"21":0.11489377637035435,"22":0.0063975501950961355,"23":0.32745865500473686,"24":-0.16444554200215264,"25":-0.014782666711723198,"26":0.03066225653722908,"27":0.11361057444969343,"28":0.11149457938353836,"29":0.027629899548241313,"30":-0.08237031081772729,"31":0.12549040998763966,"32":-0.01277702710048627,"33":0.05443619346047192,"34":-0.021805469911040758,"35":0.026138035067038365,"36":-0.1448098066663614,"37":-0.14396491457079144,"38":0.017415619871143363,"39":0.012753053090523844,"40":-0.037194063012656875,"41":0.09516613579104295,"42":-0.09323100153149311,"43":-0.08186901411915849,"44":0.1519185852188967,"45":-0.051056808687550255,"46":0.0757125475620354,"47":0.02420182803780504,"48":-0.03464350563994983,"49":-0.07377871465038502,"50":-0.05064589064560115,"51":-0.06600005286817733,"52":0.03848744938733377,"53":0.10343588718250275,"54":0.018877750382214883,"55":0.15046027657481295,"56":-0.01426475874195116,"57":0.14383301336947169,"58":-0.06772691589056207,"59":-0.04494621633055081,"60":-0.2458712779851207,"61":0.06003329568458798,"62":-0.02693243636217888,"63":0.09465494464523985,"64":0.06368417311557309,"65":0.07103890394667593,"66":-0.20787885844839468,"67":0.07114478603232784,"68":-0.030069341654996053,"69":-0.04619775352465214,"70":-0.07107465688335622,"71":-0.11295080224225197,"72":0.06202254843194156,"73":0.17652392674918005,"74":0.003059828498541167,"75":-0.0529095439043229,"76":0.17883682270589044,"77":0.015687151728361434,"78":-0.04333140666375484,"79":-0.035222450340813845,"80":0.01589449692164216,"81":-0.35792810509981254,"82":0.06172791747967494,"83":0.009493258168313527,"84":0.02943628415461804,"85":0.019218099114620257,"86":-0.15136450925784548,"87":0.20945293235758555,"88":0.11618156084225054,"89":-0.111243321863014,"90":-0.07313774782552991,"91":-0.07914420177580625,"92":-0.021723313698914653,"93":0.07677190256509248,"94":-0.023673484631734198,"95":0.03160061314580227,"96":0.0012691904462287858,"97":-0.0871123338874136,"98":-0.00006539335146856862,"99":0.009257668922108104}},{"sx":1,"sy":1,"depth":100,"w":{"0":0.23585650740514047,"1":0.6669988254010646,"2":0.03363391350538799,"3":0.04154807343145898,"4":0.2105330848645065,"5":-0.06428410019868078,"6":0.08365807723897248,"7":-0.18744090171231728,"8":0.002403928988835827,"9":-0.002617195594035131,"10":-0.14845106370619623,"11":0.00006261049595835545,"12":0.14728190079842246,"13":-0.03719224211035131,"14":-0.09165675286747417,"15":-0.034739074852484,"16":0.07927091459754305,"17":0.07186821995481793,"18":0.10948103580318708,"19":0.17235087223185525,"20":0.023277237554994633,"21":0.030864703251368964,"22":0.054575655053517115,"23":-0.04517594227759785,"24":0.20658953038368152,"25":0.22809502365235793,"26":-0.06343110945524398,"27":-0.020249634707404332,"28":0.20929103185029732,"29":-0.006360153619131448,"30":0.1332691340554365,"31":-0.00811582324181211,"32":0.0319292117884847,"33":0.1257873971044467,"34":-0.0009399189061312501,"35":-0.07770364114504426,"36":0.31141006201578403,"37":-0.02662470731148584,"38":-0.09908630424204697,"39":0.1184405499191492,"40":-0.09270034269555115,"41":-0.07322419229413486,"42":0.09776267097181285,"43":-0.09139641538983878,"44":0.033159624280375964,"45":-0.011978251740045798,"46":0.06960181606418694,"47":-0.04668842443785871,"48":0.13612590131395677,"49":0.13642065700156641,"50":0.053653102653133306,"51":0.02131760600672048,"52":-0.07913769120918224,"53":0.02012622589307233,"54":0.008724390109244865,"55":0.0588706757010741,"56":-0.13718828803436883,"57":0.04170970625920974,"58":-0.010232650698037133,"59":-0.12760540518173796,"60":-0.011926826893991284,"61":-0.005933470915397708,"62":-0.08953807053825606,"63":0.08747825355231888,"64":-0.022050160750799783,"65":-0.009882374122869755,"66":-0.06577463288637656,"67":0.11531492789291767,"68":-0.03579013016467502,"69":0.02963636920446091,"70":-0.1323731796260202,"71":0.0479540343101621,"72":-0.08578206582790059,"73":-0.17844253197409726,"74":-0.07612612349613025,"75":-0.03225803124628736,"76":-0.057474297889890516,"77":0.07755698361072916,"78":-0.12655749595688306,"79":0.10019404888364414,"80":0.22437404719445786,"81":0.02059548721732845,"82":-0.1300691359445817,"83":0.18548738398043704,"84":0.04617984296854494,"85":-0.08098633070463587,"86":0.16285037725059578,"87":0.14348883682009225,"88":0.014914774548289001,"89":-0.027082099694540094,"90":0.003232803461101014,"91":0.08776859051538953,"92":-0.16812310946198564,"93":0.10001389803032393,"94":-0.24006323081813813,"95":-0.014809426619498217,"96":0.04725906378559042,"97":0.025531011632457207,"98":0.03886582551931808,"99":-0.011134670567928332}},{"sx":1,"sy":1,"depth":100,"w":{"0":0.09726476664414486,"1":-0.014610976155237196,"2":0.01682238433202214,"3":-0.0041927759152105195,"4":0.07315095088316965,"5":-0.0032973849324735814,"6":-0.12431368149137889,"7":-0.05846101956656381,"8":-0.050735753696638894,"9":-0.09196462798480413,"10":-0.09387195307657684,"11":0.021492836717155784,"12":0.19098068525741896,"13":-0.05698119643617327,"14":0.16546862387069625,"15":0.03240230596883555,"16":0.07291934273460934,"17":-0.010116405803762512,"18":0.1297348823716881,"19":0.10429434591910644,"20":0.02766086261128996,"21":0.014787105477888047,"22":0.04212627509854188,"23":0.07580501419871426,"24":0.039497855148355854,"25":0.07959222572490762,"26":0.06841957974816881,"27":0.15640166587080012,"28":-0.05434746552293578,"29":0.0822956497361161,"30":0.10509853956602618,"31":0.08040207681747563,"32":-0.08099408839235941,"33":-0.1372745829358097,"34":-0.06335941634582108,"35":-0.03889864567202572,"36":0.061484041296681446,"37":-0.14344565623763147,"38":0.047030126414949254,"39":-0.12767455630959387,"40":-0.15230885026025787,"41":-0.14330874703024435,"42":0.017779770521395177,"43":0.14416051683246733,"44":-0.2502337245591985,"45":-0.03523361838266474,"46":-0.06376549690379509,"47":-0.07011802769344139,"48":0.0721131946944159,"49":0.028443052416752823,"50":-0.04056077093496006,"51":-0.0355556287969241,"52":0.02707263292973664,"53":0.0960339937719001,"54":-0.10845179491885688,"55":0.012827163868194586,"56":0.05303868311508777,"57":0.11737694815361116,"58":0.09962838799720963,"59":-0.06656307443860023,"60":-0.1255127352233247,"61":0.014530595125100307,"62":-0.03424865716979394,"63":-0.07423347788291104,"64":-0.14911783371996915,"65":-0.07999954943132646,"66":0.045632648114837054,"67":-0.09842981200331559,"68":0.016566373000509154,"69":0.03633443299824593,"70":-0.11493993233689656,"71":-0.16628681162474396,"72":0.03676041418498214,"73":0.05725910379866434,"74":-0.04814076285000478,"75":-0.00833414880908008,"76":-0.24847979598787676,"77":-0.1263674715149072,"78":0.0370104374441318,"79":0.16700671087466726,"80":0.062292128987965836,"81":0.1707785601163125,"82":0.1146542880689155,"83":-0.029755809880298346,"84":0.00836411115329178,"85":-0.07776043548840035,"86":0.09401303610996371,"87":0.023548039031773146,"88":-0.0859276272429317,"89":0.11779754688001155,"90":-0.0541805192188479,"91":-0.12068231578524669,"92":-0.04692698314917236,"93":0.1855412276685392,"94":0.0032676255412024,"95":-0.07753500777684426,"96":-0.13519495222428027,"97":0.04261689441800195,"98":-0.11009226801908248,"99":-0.25589993300489944}},{"sx":1,"sy":1,"depth":100,"w":{"0":0.043651990139114735,"1":-0.20409852352734956,"2":0.025111236044022912,"3":0.008418925784366059,"4":-0.17604865380049559,"5":-0.011065100072871373,"6":-0.1035319096116256,"7":-0.1769736871525498,"8":-0.0766356500584518,"9":-0.1593200820808403,"10":0.2820071091551119,"11":-0.016934497924122955,"12":-0.0015366613823371122,"13":-0.12412355726988275,"14":-0.12723924761789757,"15":0.11051393359716448,"16":-0.07724618281281702,"17":0.06372795877880476,"18":-0.03778092749575087,"19":0.017521362700208383,"20":0.05209845137004293,"21":-0.08014627698526973,"22":0.11209464143341437,"23":0.16090422680002078,"24":0.10096410621454352,"25":-0.06312823810617321,"26":0.04561002715203517,"27":-0.07410450710980482,"28":-0.06242620362992552,"29":0.06459944538774508,"30":-0.03373735235307006,"31":0.009315653887232593,"32":0.06566180710066646,"33":-0.06358023468950653,"34":-0.10095130937657087,"35":-0.035656901009628685,"36":0.08520664670790194,"37":-0.1941774947093999,"38":-0.04793618434311532,"39":-0.04192578355846033,"40":-0.10247986129362946,"41":-0.12299194697739145,"42":-0.059947234984529175,"43":0.06218132219942131,"44":-0.008219988093403041,"45":-0.049419368226281644,"46":-0.03706345111506333,"47":0.045393870841334824,"48":0.06807918541359526,"49":-0.059818204434358056,"50":-0.1274356227627847,"51":0.12402780380750532,"52":0.06476352963975533,"53":0.033869006326127965,"54":0.025110201922191096,"55":0.09466929630769097,"56":0.07679979203621021,"57":-0.22306120756303122,"58":-0.06611376590473332,"59":-0.014609734618840027,"60":0.1613836622693665,"61":0.029473420545888217,"62":0.04571711361556894,"63":0.1119648565134201,"64":-0.07846271538325317,"65":-0.014869964246022488,"66":-0.03938455027341957,"67":0.039576741307044305,"68":-0.023663547475660004,"69":0.08180868570267294,"70":-0.061394338833535435,"71":0.03388616047100172,"72":-0.07538408872621201,"73":0.05892806227007124,"74":0.050206993759834395,"75":-0.05628574453009322,"76":0.024347642007680532,"77":0.06778885777410065,"78":-0.1371226271509416,"79":-0.03357208428240811,"80":-0.0010126570819795865,"81":-0.0710623629419818,"82":0.006043564111162248,"83":-0.11377420478312869,"84":0.03542537077009167,"85":0.01349551013098811,"86":0.0788163296354998,"87":0.07357435114760282,"88":-0.02895007215999412,"89":0.016104202120640964,"90":-0.08341231779960095,"91":-0.07108272383972956,"92":0.015125203238000534,"93":0.03400954677839012,"94":-0.21567096739742914,"95":0.09478213952759806,"96":-0.019406523164137483,"97":0.15860304002678652,"98":-0.026088831803687644,"99":-0.03930668358391612}},{"sx":1,"sy":1,"depth":100,"w":{"0":-0.23010086623329604,"1":-0.20727113676989314,"2":-0.1571686875944521,"3":0.04896201349821295,"4":-0.14549114192734605,"5":-0.10644635815732702,"6":-0.06120621303844923,"7":-0.13952144310900175,"8":-0.0972806003531796,"9":-0.017360487206584403,"10":0.04580252749163445,"11":0.1248598496947577,"12":0.08764257477256325,"13":0.13845574647450873,"14":0.07105508426520292,"15":-0.05216981192369383,"16":0.03415727929256416,"17":0.05866529136400616,"18":0.19939206191786743,"19":-0.045911630098928166,"20":-0.031185688495055774,"21":-0.01404120297056704,"22":0.18036462924790436,"23":0.04187866828468351,"24":0.0382019561943603,"25":0.017433152456689183,"26":-0.07335311309410862,"27":0.1387177198862953,"28":-0.10165044085316435,"29":-0.02447077693139595,"30":0.005163459878043149,"31":-0.016171840778584464,"32":-0.2098390864773948,"33":0.03902528301443447,"34":0.14643508925392848,"35":0.09907884968486112,"36":-0.10802411898719032,"37":-0.024591400313247982,"38":-0.20649667316935125,"39":0.06919896985740796,"40":-0.023124534944850488,"41":0.05282175875373538,"42":0.009465465143456276,"43":0.021737904126511394,"44":0.14674867205720135,"45":-0.060692642522998684,"46":0.014846991627372044,"47":0.06806180215855674,"48":-0.015597105509835455,"49":0.12581228796617205,"50":0.13941077409279246,"51":-0.027263014833712847,"52":0.041471458366846806,"53":0.09956344933443927,"54":0.1306362315909699,"55":0.08770259294964157,"56":0.08237722453794062,"57":0.09209309206908292,"58":-0.029016125040923952,"59":0.006530245470912675,"60":0.03750927699693794,"61":0.1571813698593953,"62":-0.002050899623542818,"63":0.05353838329167881,"64":0.013133451917786513,"65":0.07331585055199151,"66":0.16595636533929553,"67":-0.129010871636785,"68":-0.11376190570239121,"69":0.05461049512422007,"70":0.12060586648960381,"71":0.07348489829523805,"72":-0.13814411773332616,"73":-0.08056049230007636,"74":0.15288588445549517,"75":-0.04938896950461853,"76":-0.06106933176700917,"77":0.13172593734917357,"78":-0.004936438280992651,"79":-0.023599434934105146,"80":-0.06242889147581798,"81":0.08987430726175699,"82":-0.05363893894458842,"83":-0.07414822344656699,"84":0.1389267112324664,"85":0.05645108357152931,"86":-0.07437419217895443,"87":-0.017705652014191362,"88":-0.1893794173980751,"89":0.01268273389320724,"90":-0.029719089588114866,"91":0.06105810577469508,"92":-0.08956251479317577,"93":-0.02937092107070088,"94":0.012603336355770052,"95":-0.06067585853257337,"96":-0.08048571629180679,"97":0.06480422866112896,"98":-0.15635458823154444,"99":-0.05843122268431856}},{"sx":1,"sy":1,"depth":100,"w":{"0":0.030268792101916544,"1":0.05557592088025923,"2":0.036335645461026196,"3":0.029294062879561433,"4":0.3040779638067759,"5":0.04135067524868781,"6":0.18426268373131652,"7":0.1500869278544542,"8":0.04674132567467258,"9":0.005511157631369053,"10":-0.05518949548349907,"11":-0.04847724704586522,"12":-0.01866194976628658,"13":0.07490211145502751,"14":0.026604505340641578,"15":0.0015444787780546096,"16":0.0427776418686579,"17":0.20602541035012023,"18":0.05465475379060419,"19":0.17982089769353884,"20":0.04795935967999343,"21":-0.11830321302024838,"22":0.03255454508941119,"23":-0.002987959943875959,"24":0.0514695786062278,"25":0.05660241134677154,"26":-0.09938635687247534,"27":0.08611268494508603,"28":0.12486557746051559,"29":-0.18134949876693007,"30":0.03085542724625987,"31":0.08638497101511311,"32":-0.10460270782172451,"33":-0.010444649648151581,"34":0.06956443982563153,"35":-0.11794089989332321,"36":-0.07609525684261689,"37":-0.13370115767955754,"38":-0.06620800695025902,"39":0.2781797963723558,"40":0.10024518748627552,"41":-0.04593305943218411,"42":-0.060736792081839915,"43":0.1356111030426279,"44":-0.1286203499919809,"45":0.058924922002081374,"46":0.10546086895988796,"47":-0.054772790398290874,"48":-0.14398751754511654,"49":0.012662090240660522,"50":0.14322678829893357,"51":-0.008436845510540024,"52":-0.17190133482828449,"53":-0.056503380018285795,"54":-0.08829500423894218,"55":-0.0233738963061373,"56":-0.039791726793066494,"57":-0.1401155021826295,"58":0.018373132163247062,"59":-0.06339853045773837,"60":-0.0016684531727533115,"61":0.009115721339568304,"62":0.12048162293100864,"63":0.14376061268721058,"64":-0.014646727624233708,"65":0.099228330388352,"66":0.02156336383515909,"67":0.05348509472343992,"68":-0.05137966673095023,"69":-0.034170627624987494,"70":-0.09086304065403325,"71":0.2694673519514083,"72":-0.1355947689965751,"73":0.004396166250625002,"74":-0.024192356073428824,"75":-0.25282508551049193,"76":0.06416237036836007,"77":-0.047191829864322875,"78":-0.23857051611090688,"79":-0.09676506361288233,"80":-0.15551492138101244,"81":-0.10618375796167633,"82":-0.21747388673573823,"83":0.03359302764265827,"84":-0.014240146101919147,"85":-0.048823383668110454,"86":0.09628084666941805,"87":-0.13301201177523522,"88":-0.0471034803989349,"89":-0.03791288089672699,"90":-0.0517843135637812,"91":-0.105632866421559,"92":-0.129220397199647,"93":0.012949712759267477,"94":0.14315119152369848,"95":-0.00556512234975933,"96":0.02810976659847277,"97":0.14998902976083703,"98":-0.02551276599945464,"99":-0.09755773332697057}},{"sx":1,"sy":1,"depth":100,"w":{"0":0.0897827365477388,"1":0.08054142304476437,"2":0.12186254480064175,"3":0.10409331941993254,"4":0.02157272857296695,"5":0.07754370331132827,"6":0.03877942456392356,"7":-0.18379028588586166,"8":-0.018040252775187567,"9":-0.10155622072814031,"10":0.11654482835924243,"11":-0.05653258243077608,"12":0.027399910977450724,"13":0.14032704630638315,"14":-0.16251344195662737,"15":0.08894511864049107,"16":-0.08748518699079878,"17":-0.07423839661791079,"18":0.028333829467876024,"19":-0.004491609885015406,"20":-0.0558942171367857,"21":-0.2501034206630438,"22":-0.10947741896136538,"23":0.061029044622179784,"24":-0.04103523965788575,"25":0.0890155126212383,"26":-0.17771844830520525,"27":-0.01873438188359848,"28":-0.0949637332317295,"29":0.039345307104372444,"30":-0.17406893756798603,"31":-0.060650903816095406,"32":-0.05985600498478087,"33":0.1363912848160977,"34":0.1400421066543097,"35":0.10414768377430167,"36":-0.13710683930683157,"37":0.14094912042981858,"38":0.16136198318323153,"39":0.03147350728155229,"40":0.04011227132825278,"41":-0.01920367476502521,"42":0.14474342379719182,"43":0.026652238771755817,"44":0.0441773794965614,"45":0.053484247718885394,"46":-0.00789941378111997,"47":-0.15893726676342546,"48":0.023312035771354746,"49":-0.11604393731703626,"50":0.0024888374428663116,"51":0.007739670251991674,"52":0.04487109320188679,"53":-0.20576925453395237,"54":0.04942201337688661,"55":-0.09121165813651974,"56":-0.10746382008230808,"57":-0.05226053622829195,"58":-0.15956247492566694,"59":0.03486279916225061,"60":0.027107652044966568,"61":-0.09631989687133163,"62":0.06827107553352628,"63":-0.11055984387381959,"64":-0.05661361984403219,"65":-0.07780398654555945,"66":0.22909892400069745,"67":-0.057551751755602454,"68":-0.06217893658877393,"69":-0.015256265801396324,"70":-0.08548562024166892,"71":0.16249843357108584,"72":-0.0689934829018215,"73":0.09966056890663984,"74":0.032017419887579446,"75":0.054874973757772255,"76":0.06837592765603358,"77":-0.03282662370990593,"78":0.110483812343378,"79":0.10648224867527474,"80":0.06092718701223636,"81":-0.16076840648363588,"82":0.008960541751310077,"83":0.015592834382222366,"84":-0.07174555653109094,"85":-0.006193814889553922,"86":0.10211664931649841,"87":-0.11111504334629563,"88":0.047622638806535736,"89":-0.08298230751025208,"90":0.06839890758456542,"91":0.0009515765976344918,"92":0.1317251835085219,"93":-0.11967909754323655,"94":0.00799191755528079,"95":0.08144001881949438,"96":-0.08409786961529259,"97":-0.16327393172830956,"98":-0.09286352955969085,"99":-0.02643306607022489}},{"sx":1,"sy":1,"depth":100,"w":{"0":0.12358879072306891,"1":0.06928495829842923,"2":0.13265132934524615,"3":0.02673771972714014,"4":0.013763038891489845,"5":-0.01871917596117127,"6":-0.02660110904019962,"7":-0.0634364682889475,"8":-0.11175810697453419,"9":-0.05409946436477,"10":-0.05599167293272336,"11":0.08265969756419259,"12":0.01504371754005805,"13":0.1469051493571802,"14":-0.06395826089979144,"15":-0.040102816429706055,"16":0.08329946534762378,"17":-0.012660734707003928,"18":-0.002473277895858077,"19":0.04820257725022898,"20":-0.203431419762566,"21":0.002713466781460166,"22":-0.11650452017293413,"23":-0.2500970203657725,"24":-0.08297363384295996,"25":0.09160327026433639,"26":-0.15210994932855074,"27":0.030966831799241295,"28":-0.3059482941156924,"29":-0.14533297652565474,"30":-0.24604433332371023,"31":-0.08538606970353144,"32":0.00896614643392545,"33":0.08093617130141666,"34":-0.21158002690298824,"35":0.12062381203758837,"36":0.011025698661249948,"37":0.12693104025904026,"38":-0.12314433105375078,"39":0.07504227453781544,"40":-0.07696952477447151,"41":0.030263141315337853,"42":0.06676301250998422,"43":0.15369249865976506,"44":0.03941418667485488,"45":0.20320339387463157,"46":-0.001360302943716944,"47":-0.012603879994527162,"48":-0.08594755557772404,"49":-0.0673078631655166,"50":0.1372896940817742,"51":-0.1580052042864903,"52":-0.058988336236590576,"53":-0.07453417839182724,"54":0.08779150198009211,"55":-0.10217253696295983,"56":-0.12022390571989787,"57":-0.15458132197099686,"58":-0.025010657129592266,"59":-0.09239431591166664,"60":0.1874992087698465,"61":-0.07963297695043621,"62":-0.023123901619785555,"63":0.1772932610377299,"64":-0.07962321499158236,"65":0.1394501350216913,"66":0.16744799450326167,"67":0.04440939353001968,"68":-0.14147871664404799,"69":-0.026580367073044207,"70":-0.12622815683071575,"71":-0.06259911119940802,"72":0.2032393308213571,"73":0.20214813677289564,"74":-0.06468412932244388,"75":0.02147840583326008,"76":-0.18688111892455184,"77":-0.0223481204744569,"78":-0.13128115197017504,"79":-0.16914178360668986,"80":-0.10817361368375941,"81":-0.12436041486112363,"82":0.0407267360712046,"83":0.02063242234277702,"84":-0.14200066339453002,"85":-0.14606297887173095,"86":0.11264987724905152,"87":-0.07414885343471606,"88":0.13683150188631651,"89":0.020008012171243452,"90":-0.18876046167572064,"91":0.1366081356317353,"92":0.07050312440596054,"93":-0.15101694666507387,"94":0.05315318475896965,"95":-0.034364663484261405,"96":-0.032759010869871534,"97":0.11051518919729388,"98":-0.023760457017223378,"99":-0.004274686669920724}},{"sx":1,"sy":1,"depth":100,"w":{"0":0.11534148170829409,"1":-0.33710684513920613,"2":-0.024651738116931887,"3":0.0017529696028204054,"4":-0.3263730264057295,"5":-0.11008702072978034,"6":0.1349389204370651,"7":0.04317838617439982,"8":0.0107392070047586,"9":-0.1256635795696585,"10":0.051974514350852936,"11":-0.0005601019100462398,"12":0.1681311452693416,"13":-0.018406139667584843,"14":-0.16424757083159142,"15":-0.013815751421031064,"16":-0.08951721294082483,"17":-0.12060086216550718,"18":-0.016299786356302318,"19":-0.11524731861210417,"20":-0.094843725458971,"21":-0.08961636671398762,"22":-0.2505266738668971,"23":0.14789946716421,"24":-0.17960731921249587,"25":0.07435996097081929,"26":-0.009808091027169546,"27":-0.05683239620876567,"28":0.0074845215333248895,"29":0.040978134201421414,"30":-0.1560094748433381,"31":-0.12472700526044755,"32":0.037512605227211344,"33":-0.05364512311243546,"34":-0.06746148798296919,"35":-0.08972844121173772,"36":0.04481493398501407,"37":0.003105525714659275,"38":0.011693202023864865,"39":-0.06092884551778479,"40":0.05361994621451001,"41":-0.02079665583872437,"42":-0.06558817004824555,"43":0.10773261625887243,"44":0.0682791848549344,"45":-0.00465775144688702,"46":-0.00001402474322113605,"47":0.08538031276644607,"48":-0.04068442406614967,"49":0.218943222933204,"50":-0.08412181680735352,"51":-0.18280368972003097,"52":-0.1619188417911861,"53":0.022390870294116388,"54":0.08663470813645084,"55":0.031128763980146645,"56":0.07601001040668666,"57":0.06881517239817699,"58":0.019726185518800333,"59":-0.03323244285220392,"60":-0.02411723156627939,"61":0.060198156787751304,"62":-0.003084400824020575,"63":-0.030037419515480675,"64":0.03351610344960596,"65":0.04320246361790256,"66":0.05018750090401454,"67":0.20016978612382444,"68":0.05213993360039605,"69":0.050302605099924166,"70":-0.12512883148581866,"71":-0.08576291274063526,"72":-0.07024022771749783,"73":-0.07949256913356345,"74":-0.06537499467192653,"75":0.10901808202569804,"76":-0.16503748055538886,"77":-0.12236891171778225,"78":0.004585605115287328,"79":0.12223400645747323,"80":0.07742176563817933,"81":0.07948320228343352,"82":0.05726662251055711,"83":-0.2014506294244158,"84":0.11483428817209702,"85":-0.016709557809828742,"86":-0.03984340273454311,"87":-0.0049036578032118396,"88":0.02240929827376701,"89":0.022278069951631015,"90":-0.0011608425048629735,"91":0.05733587482114064,"92":-0.03776080144692008,"93":0.11759132047856573,"94":0.010789595756413823,"95":0.09672310701280079,"96":-0.09467365751625659,"97":-0.14422815082870272,"98":0.009994874769837962,"99":0.07095930036701596}},{"sx":1,"sy":1,"depth":100,"w":{"0":0.19241586387712306,"1":0.012764488565836823,"2":0.057733766998237894,"3":0.11486585172188532,"4":0.0745424524306829,"5":-0.14996794386107604,"6":-0.03338256453210071,"7":0.026328963812233038,"8":-0.17633156557679733,"9":0.01655089292861219,"10":0.1189167086019045,"11":0.05340683425513782,"12":0.12265515269054998,"13":0.2099064079380528,"14":0.034438864765846004,"15":-0.10582003277948963,"16":0.0460366161575058,"17":-0.07536495044081151,"18":0.013437184596909154,"19":-0.02512119236754671,"20":0.02511970136959241,"21":0.0354773568885909,"22":0.19966204520585523,"23":-0.03597140719795333,"24":0.06854444435054012,"25":0.031639590315432946,"26":-0.13721960078132905,"27":-0.1231400235296762,"28":0.021969889561960873,"29":0.029728158541852196,"30":0.05631125776351328,"31":-0.0978020185175553,"32":0.03720084774443446,"33":0.254800972294044,"34":0.13035409871690998,"35":0.1032874587305532,"36":0.15745620478042108,"37":-0.09066392919992097,"38":-0.25216856278216826,"39":-0.025532999486231417,"40":0.2049318925528078,"41":0.2174584702972764,"42":0.02165369481259006,"43":0.09586194868864122,"44":0.005900720192815244,"45":0.06726498608733941,"46":-0.04247432701469671,"47":0.0284349709901115,"48":0.15274433438153112,"49":-0.1412159287795409,"50":0.014684961845895367,"51":0.0539605344237039,"52":-0.17579502662285235,"53":0.03952374349564901,"54":-0.11782442672920944,"55":0.05575469099929571,"56":0.21017861654386188,"57":-0.0010890315355336487,"58":-0.09541341119183891,"59":0.14557069976205744,"60":-0.10460828101262978,"61":0.07511165529067003,"62":-0.14500038058323753,"63":-0.04009475953984308,"64":0.02042749448631593,"65":-0.0011419947497371484,"66":-0.03444770983149052,"67":0.04338008824183137,"68":0.05744350998306455,"69":-0.1049800275137273,"70":0.038280428208813555,"71":0.02448633660949705,"72":-0.10463776400269334,"73":0.11690479772199655,"74":-0.018065132493568482,"75":0.10525973712763816,"76":0.14382216857255067,"77":0.005928337407992387,"78":0.04661517815647492,"79":0.07695776096760217,"80":0.10082191302967318,"81":0.11233744630189707,"82":-0.10143282703050313,"83":0.02236377092443602,"84":-0.060539693577129725,"85":0.008436788745360803,"86":0.08382849238910506,"87":-0.11094437566446447,"88":-0.010101325146568736,"89":0.1936884763048916,"90":0.07670185657379747,"91":-0.0781027931933548,"92":-0.03014343780348705,"93":0.061232320410842096,"94":-0.04175877057755906,"95":0.0023686205322850013,"96":0.045219439174108186,"97":0.07997644916525194,"98":0.11399993445833138,"99":-0.07061867902251075}},{"sx":1,"sy":1,"depth":100,"w":{"0":0.12247924099559256,"1":0.22884630848034251,"2":0.05422249764850012,"3":0.11678316251472211,"4":0.16693638324967566,"5":0.019089593040568294,"6":-0.06539389015195589,"7":-0.015663667075845777,"8":-0.05773427145415377,"9":-0.042817285703201,"10":0.05900994181146325,"11":-0.03201059151135401,"12":-0.1962854396702211,"13":0.0020687654375111685,"14":-0.09109905280464266,"15":-0.12728000999321762,"16":0.09583250434861768,"17":-0.10952315786554064,"18":-0.058415302773474266,"19":0.06255282980314227,"20":0.008628856248745287,"21":0.03954249781633961,"22":-0.09531162139617591,"23":-0.1271084126546424,"24":0.06427322286352755,"25":-0.15095285096132482,"26":0.09530603682508258,"27":-0.05664615998301097,"28":0.0773938744726272,"29":0.01439594786150401,"30":-0.14468289227348652,"31":0.12070947930224685,"32":-0.01096129463759286,"33":-0.08313930342191124,"34":0.0048749855351005586,"35":0.09701257007828235,"36":-0.13802568660160858,"37":0.09282995530885182,"38":0.0019842354446924755,"39":0.02315478482953916,"40":-0.15657077014913437,"41":0.1500297159788005,"42":-0.001815425148494719,"43":-0.12888945552208803,"44":-0.19246342934647212,"45":-0.23315333265052907,"46":0.01851314363584413,"47":-0.034336769208652876,"48":-0.04136368999450699,"49":0.07474972604662829,"50":-0.009656316629938736,"51":-0.24741344926675446,"52":-0.018647501924084296,"53":0.04008046164809897,"54":0.043167906089094175,"55":-0.08539215231854044,"56":0.061232288586196476,"57":-0.09646487093027012,"58":-0.10040944344708269,"59":-0.03566835318453987,"60":-0.06517202714309105,"61":0.17090101360043247,"62":0.13656723910558882,"63":0.007294968262794944,"64":0.12038668086104286,"65":-0.08548624315810675,"66":0.05251558008274835,"67":-0.15876862056761876,"68":-0.06961376158338274,"69":-0.04169833936169868,"70":0.02779337834642731,"71":-0.040794063084077646,"72":0.23404087802823909,"73":0.1269843122719692,"74":-0.05431214463595346,"75":0.1689268973685054,"76":0.04385094225682247,"77":0.06912829817176767,"78":0.0906653925455248,"79":-0.019059791835127952,"80":0.04206650875952916,"81":0.2268226771165705,"82":0.11468757916460512,"83":0.10223237176171308,"84":-0.10171069597521054,"85":-0.21229174547184493,"86":-0.1906269102294978,"87":-0.07263420410265035,"88":0.0533068907691291,"89":0.07336566611822502,"90":-0.08325936758722985,"91":0.0453763263428225,"92":-0.16419609247448225,"93":-0.05691680929991783,"94":0.14158965622915096,"95":-0.011137563592192666,"96":-0.2375247195631046,"97":-0.11140231915022335,"98":0.03526792131351033,"99":0.10686017279119159}},{"sx":1,"sy":1,"depth":100,"w":{"0":-0.027094857386010043,"1":0.05577876943746638,"2":-0.0016792173081293317,"3":-0.05815628608007791,"4":0.033578672001739446,"5":0.18688487771629098,"6":-0.09621838186233535,"7":0.03869806557880181,"8":0.07552621999648207,"9":0.2439018463218136,"10":0.038689078687942156,"11":-0.05610906600197534,"12":0.07715707847845932,"13":-0.1112492498474148,"14":0.06485198514027904,"15":-0.08165832150971138,"16":-0.1517180354624331,"17":-0.025347537735318393,"18":-0.02843688392710874,"19":-0.001667143871511531,"20":-0.04067929710951325,"21":0.0347730138517349,"22":-0.10550160812335517,"23":0.08670521696287302,"24":-0.04567609055604767,"25":-0.1437275549078322,"26":-0.12987035106217212,"27":0.0678551815935885,"28":-0.1786552357700874,"29":0.10217242942852738,"30":0.008356404510809004,"31":-0.10720831506806218,"32":0.07906973889446366,"33":0.09509261286558542,"34":0.008332996011574844,"35":0.1892441683826494,"36":-0.05289769126310313,"37":-0.09162764220450051,"38":-0.007111292856189191,"39":-0.11133069463572122,"40":0.03735021730926393,"41":0.14943065904486466,"42":-0.06519802789523702,"43":-0.05606650018279181,"44":-0.024295297306915244,"45":0.010353660456255107,"46":-0.07576106185109399,"47":-0.08663340053685348,"48":0.005296854206810822,"49":0.004752382996410692,"50":-0.11545412209270302,"51":0.06634400458777834,"52":0.017838158702723404,"53":0.29677105066617115,"54":0.2102264715432684,"55":-0.17522945934718132,"56":0.1455869010735495,"57":-0.08396709118656141,"58":-0.07348287243036543,"59":0.012050974992579445,"60":0.0017587966547928254,"61":-0.05101234125753209,"62":-0.06553449542175063,"63":-0.2150731816229407,"64":0.009721323277756799,"65":0.059220285080102,"66":0.1122354810764916,"67":-0.014478879806394096,"68":-0.10478457310106187,"69":-0.12401562827008387,"70":-0.054928287171798505,"71":-0.019237239250495832,"72":0.006940295948654917,"73":-0.06676026366047097,"74":0.08233922891535475,"75":0.00877083316971064,"76":-0.06427875265802448,"77":-0.039477836005101755,"78":-0.024312334289167768,"79":-0.022687873460308535,"80":-0.040150749702857855,"81":-0.015889567680199487,"82":0.0008050151883126788,"83":-0.15763752944017673,"84":-0.13079050112672122,"85":-0.17075191294633008,"86":0.12144238987115526,"87":0.026647545301234577,"88":0.1974525290805097,"89":0.02787606970729288,"90":-0.2373074249010592,"91":-0.006117662433770433,"92":0.04006432031986647,"93":-0.09503006729234222,"94":-0.0964360026668643,"95":0.07000465434301366,"96":-0.08926588429168261,"97":-0.0821509149437436,"98":-0.1914767244624574,"99":-0.21568741064749153}},{"sx":1,"sy":1,"depth":100,"w":{"0":-0.007068880223826303,"1":0.1842479280145356,"2":-0.011211965990934046,"3":0.0020460938894023583,"4":0.02211330027130975,"5":-0.13428531587549236,"6":0.0436081705305274,"7":-0.003926535634198661,"8":-0.06338425966602687,"9":-0.1502135431280971,"10":-0.08949496014751614,"11":0.007835437694884219,"12":0.007384534560369891,"13":-0.02167960976429317,"14":0.02893090068361004,"15":-0.07649408762841343,"16":0.17544645483843566,"17":-0.06741570582082396,"18":0.04788982202922081,"19":0.004272640508662464,"20":0.08005825658088427,"21":-0.038581238627946296,"22":-0.07081573872844917,"23":0.06581947407513557,"24":0.021059881455333686,"25":-0.19707255703336238,"26":0.07984799454189567,"27":0.025123333426726912,"28":0.06464027382333659,"29":-0.049539404077903644,"30":0.048922749122200536,"31":-0.08538727536924605,"32":0.08472366700498644,"33":0.09249851241205286,"34":0.01614616656831762,"35":-0.262280592799088,"36":-0.06300547782337391,"37":-0.049915129457524236,"38":0.04870657182478698,"39":0.06544094127908016,"40":-0.14825930337634458,"41":-0.14663224495046556,"42":-0.03220763009960732,"43":0.04004508532205253,"44":0.03124341712888079,"45":-0.0860172012541338,"46":0.1299776568469558,"47":0.17421404093204754,"48":0.22748990881058495,"49":0.04100088437998925,"50":0.04421448898599861,"51":-0.0658507872897806,"52":-0.13421154234857746,"53":-0.1736558117154304,"54":0.004093484360316791,"55":-0.0959748150712899,"56":0.04693221220915728,"57":0.010317593527497395,"58":-0.25147531623200087,"59":0.05326014455283571,"60":0.0044051685300789695,"61":0.09544913504344864,"62":0.022306090323649854,"63":0.05788146111741768,"64":-0.08010689047138587,"65":-0.028798424289097693,"66":-0.0784455368957304,"67":0.02815921853528729,"68":-0.026981897070083145,"69":0.1836962295355324,"70":-0.1515847209317967,"71":-0.18945412552230123,"72":-0.11771670183642581,"73":-0.19584731298169494,"74":0.10555315511788227,"75":0.11203565951251114,"76":-0.018927953693414722,"77":0.14018132524454105,"78":0.02307422628921604,"79":-0.10719346817370788,"80":0.02110540559367114,"81":0.008341705189193053,"82":-0.03955096638246507,"83":-0.034872453828538076,"84":0.0696946581337394,"85":-0.03248709256473053,"86":-0.06346547846965699,"87":0.0620701271237911,"88":0.09933147227631703,"89":-0.020013661515501293,"90":0.034110626328725864,"91":-0.14218976349747997,"92":0.05303262765631336,"93":-0.0771608366776122,"94":0.05332542025320148,"95":0.05922537089140788,"96":-0.11745755944687432,"97":-0.028858281908191813,"98":-0.06729491294287354,"99":-0.01906570305943537}},{"sx":1,"sy":1,"depth":100,"w":{"0":-0.11098098446610426,"1":0.035329727185360774,"2":-0.012629438977570986,"3":-0.025325792453774462,"4":0.12100851899603164,"5":-0.07694351009733211,"6":-0.08666693373694406,"7":0.08013106035345124,"8":-0.031844363355860536,"9":0.06791573441139417,"10":-0.21141887292683753,"11":0.10859101752038886,"12":-0.12701624175514428,"13":0.06022859962147002,"14":0.07979960167735871,"15":0.07727610078250198,"16":-0.12989927618281796,"17":0.08988640387890207,"18":0.10662883974712707,"19":-0.07241245577707323,"20":0.13695872943109172,"21":-0.05015976055186284,"22":-0.21924883351140306,"23":0.049543518676824876,"24":-0.02053972789308173,"25":-0.049591931165373714,"26":0.24762917924836716,"27":0.061004579841083297,"28":0.1165167225348373,"29":-0.0013752849900866386,"30":0.019286238813194884,"31":-0.1329072685548117,"32":0.1880249985918452,"33":-0.04024890620771552,"34":0.004424049126650934,"35":0.008053822654540433,"36":-0.07980450864138322,"37":-0.128162072349222,"38":0.016822704893742914,"39":0.03693366361790772,"40":-0.06993608883831497,"41":-0.009647009931407978,"42":-0.10262713883259166,"43":-0.2334045506448538,"44":-0.12084229609808543,"45":-0.020518643193485845,"46":-0.07402508191091353,"47":0.04041552307135563,"48":0.14881516603813527,"49":0.0033070570760597743,"50":-0.1446395447170755,"51":0.04518900736641117,"52":0.08642913637667393,"53":0.033378004558487405,"54":0.027067462707788273,"55":-0.04083723409357042,"56":-0.0794772891455044,"57":0.10808656696698918,"58":0.14304633811674206,"59":0.14503539233592413,"60":0.018984433204092127,"61":-0.12603483282121977,"62":0.11427711179914986,"63":-0.085838160018573,"64":-0.06510531135653963,"65":0.07737594146395688,"66":-0.025419191044478717,"67":0.08710370472294444,"68":-0.08678564068035463,"69":0.07789701748180523,"70":0.06366544116945749,"71":0.09351926677397834,"72":-0.10160777196293215,"73":0.05863123004137033,"74":-0.16861883786993515,"75":0.02766322271016381,"76":0.12842299047631098,"77":-0.09170897470019543,"78":0.03330073396970688,"79":-0.015513134710834561,"80":0.036502435570729116,"81":-0.021340267513815982,"82":-0.047003550380512946,"83":0.00865505382685324,"84":0.017152440435096766,"85":-0.05950791522480129,"86":-0.025041996313173776,"87":-0.2604961346298066,"88":0.150985516179979,"89":0.04605459233564873,"90":-0.10004818164199356,"91":0.11838999569712946,"92":0.048259248584781436,"93":-0.12984382200396297,"94":0.07341203933760937,"95":0.06844283182027852,"96":-0.08872202912684064,"97":0.04178497407910325,"98":0.13197553324649466,"99":0.0883090618646805}},{"sx":1,"sy":1,"depth":100,"w":{"0":0.0027377155789003404,"1":0.002170828321467715,"2":0.08464807997380949,"3":-0.12376698155839444,"4":0.06793232784948952,"5":0.02259841972562394,"6":0.03260928612542768,"7":0.0773760566952121,"8":-0.0060096262715367,"9":0.1166006479813007,"10":0.02154054551054693,"11":-0.08106871428544819,"12":-0.032423994979270274,"13":0.07501486572513623,"14":-0.038356885764398135,"15":-0.06195527798038347,"16":0.05004377341838008,"17":-0.231611233083763,"18":-0.03800091276085727,"19":-0.09718642913357774,"20":-0.076975515820836,"21":-0.17688414467914534,"22":0.04502196811779524,"23":-0.09370355701833075,"24":0.0948695738766392,"25":0.08963090403606624,"26":0.0010319190269449927,"27":-0.13005369939861738,"28":0.0868063094846167,"29":0.0945907688728637,"30":-0.0172530427510883,"31":0.16451868417191182,"32":-0.03392787046108073,"33":-0.12269338082746815,"34":0.10263694712321049,"35":0.03536376546279381,"36":-0.0589450803621209,"37":0.15944991683204468,"38":0.10946906488574946,"39":0.12236747828370977,"40":-0.06802521218968591,"41":0.050286530977885366,"42":-0.018623794471482717,"43":0.07215309917846294,"44":-0.003838854995187472,"45":-0.2434447005451008,"46":0.047111557748098866,"47":-0.04271204514660814,"48":0.03862698561743801,"49":-0.14202144380940326,"50":0.07866787286777992,"51":-0.14872431905624792,"52":-0.05921377475630007,"53":0.07041686801829505,"54":0.15319874608487996,"55":-0.07625521128630368,"56":-0.01562592428448525,"57":-0.12544990166691208,"58":0.12005430874794334,"59":-0.03421917420624799,"60":-0.12182817983575174,"61":-0.12404091355780841,"62":-0.00067388903698796,"63":-0.20642296579681,"64":-0.1301362680084684,"65":-0.13655371518844328,"66":0.041962776671439626,"67":0.02475481649324198,"68":0.008025061523003382,"69":0.006048516179274085,"70":-0.1498841224642985,"71":-0.049237735397727404,"72":-0.0035584244255462754,"73":0.069660958999872,"74":-0.058636584779734345,"75":-0.06164788251704882,"76":-0.048935861299324236,"77":0.01625605510692073,"78":0.005726651021174551,"79":0.052858443047970084,"80":0.010650645393595531,"81":0.01709525054145866,"82":-0.17832782459914404,"83":0.044615317131438986,"84":0.08466146717448603,"85":-0.06661460317682218,"86":0.2032303653240927,"87":-0.03968810977780761,"88":0.004734053871137895,"89":-0.06765533831409357,"90":-0.14354965936666025,"91":0.09815646220820033,"92":0.15909565426750027,"93":0.031208960962753877,"94":0.07757378609725062,"95":0.09251869317546929,"96":0.11686812635367176,"97":0.04240320958919583,"98":-0.10637247433175077,"99":-0.03994645350041965}},{"sx":1,"sy":1,"depth":100,"w":{"0":0.036475567436820185,"1":0.0746731602484974,"2":0.08358917060917824,"3":-0.14215491878352443,"4":0.14809493959290052,"5":0.18575661712140576,"6":-0.07615968100803122,"7":-0.03910035591037462,"8":0.12421199799579029,"9":0.05239100914678197,"10":0.14073863462594247,"11":-0.023858817426721652,"12":-0.05471764731841419,"13":-0.017710147294138324,"14":-0.07263633340915598,"15":-0.033230473114210235,"16":-0.05787950730981036,"17":-0.10045281586334776,"18":0.022482658862890154,"19":-0.03643943012332691,"20":-0.08323478644257752,"21":-0.13021832216990936,"22":0.11149401883308878,"23":0.24109482122724388,"24":0.10831974380705796,"25":0.1941085473146145,"26":-0.2190788745449875,"27":-0.002038570594469856,"28":0.19683162913686977,"29":0.17304435722239211,"30":-0.1335883424901137,"31":-0.03521591839043877,"32":0.03981587992929349,"33":0.19533466490390552,"34":-0.00554535205576636,"35":-0.0939088838888937,"36":-0.21638995045915638,"37":-0.006180793259935389,"38":0.06748734022029107,"39":-0.015236154731939896,"40":-0.0892148093427658,"41":0.10148191803288606,"42":-0.07708636755766514,"43":-0.048699831768745906,"44":0.0004979335546582512,"45":-0.006288140072950393,"46":-0.04612829316467331,"47":-0.05615807555831186,"48":0.13806780685976275,"49":-0.018394053482373073,"50":-0.0420816101854831,"51":-0.02161596207903932,"52":-0.07017478615862777,"53":-0.13892989198277825,"54":-0.1031586643997468,"55":-0.1671398980728368,"56":0.07469997965313965,"57":0.05700030592284117,"58":0.08664282473360425,"59":-0.16929413488680412,"60":-0.044110870965706234,"61":-0.11184603450089216,"62":-0.023056134057382452,"63":-0.03289890304759835,"64":-0.16833772261311328,"65":-0.02154923932483671,"66":0.17717030238338488,"67":0.3327566069582565,"68":-0.027336826357825177,"69":0.06698504131274884,"70":-0.02520324052589597,"71":-0.06281893456679366,"72":0.04483027715827018,"73":0.03538039732655336,"74":-0.0001762345245977088,"75":0.1906625392732048,"76":-0.09829004893900675,"77":0.1058121952938801,"78":-0.13714959678147792,"79":0.09116394232254876,"80":0.017382553731654447,"81":-0.07712506496517496,"82":0.080089600605839,"83":0.035348907891717386,"84":-0.19855997063602637,"85":0.055010347357750594,"86":-0.047158006895279034,"87":-0.1436625287994244,"88":0.057156750141639005,"89":0.0661316085977223,"90":0.03860207548134289,"91":-0.061127290374243345,"92":0.03087166484283401,"93":0.08995395196701747,"94":0.18909983126693727,"95":-0.013288746051184967,"96":0.0006959459096511106,"97":0.16491154724645002,"98":-0.05610984073849203,"99":0.036607787155945905}},{"sx":1,"sy":1,"depth":100,"w":{"0":0.14015288070277895,"1":0.40904723709658847,"2":-0.18109125466107082,"3":-0.012136090007656078,"4":0.3933010823719906,"5":0.03921684694327106,"6":-0.10713912106892276,"7":0.14149925260796511,"8":0.0836339331510236,"9":0.01353910856908244,"10":0.1697270074457971,"11":0.07860851357483704,"12":-0.08843503565770665,"13":0.062243861430600754,"14":-0.11355350045767909,"15":-0.09457814098370425,"16":-0.1505928912005851,"17":0.021061237248406917,"18":0.02802775834674884,"19":0.25724064877233727,"20":0.016442040418319245,"21":0.13029058921791542,"22":0.14584948720794677,"23":-0.19294985941041404,"24":-0.09164157385737205,"25":0.16434059130731038,"26":0.041539019685314565,"27":0.12064901109495965,"28":0.13975036963728207,"29":-0.04047000786245112,"30":-0.15314060936085092,"31":0.1290520021316643,"32":-0.07028920304453093,"33":0.13245819479104975,"34":0.32515105060867167,"35":0.019389137150621502,"36":-0.0707014015699859,"37":0.1261219055223968,"38":-0.05334769218425753,"39":0.09806233078850227,"40":0.09327928989385213,"41":0.11314675098458994,"42":0.10168300236431395,"43":-0.07723004335173951,"44":-0.05888956099420279,"45":0.16921396426940236,"46":-0.07523790112067132,"47":-0.0569810623527976,"48":-0.09043505379181552,"49":-0.07153838244226357,"50":0.04052128440082138,"51":0.2614358148920743,"52":-0.13046456326327943,"53":0.02150261500447105,"54":0.03597708695751378,"55":0.06356896715029942,"56":0.08841366008617783,"57":-0.1185324041329433,"58":0.0230511003621481,"59":-0.004705333892594432,"60":-0.08895979391958042,"61":-0.008844600618057443,"62":-0.09896499761123703,"63":-0.05145873177397002,"64":-0.050816266982604524,"65":0.09463904669426061,"66":0.14333405865506732,"67":-0.03155355228023454,"68":0.02717940289568327,"69":0.023354831452223553,"70":-0.08615318653384048,"71":-0.03479435771028591,"72":0.09536811880179656,"73":0.07060732209635452,"74":0.02831487940270992,"75":0.08620340388632516,"76":0.08181147942446268,"77":0.05595861380971833,"78":0.05730384847238061,"79":-0.14264890588788637,"80":-0.006854387339876964,"81":-0.006843091000962893,"82":0.0632520787042993,"83":-0.01689666646275736,"84":-0.034156936539161756,"85":-0.04238230547862767,"86":0.04058836571060687,"87":-0.011727136399193639,"88":0.037554345724447706,"89":-0.20422609960536917,"90":-0.11917412705271965,"91":-0.15082935951250478,"92":0.06419802313390782,"93":0.05544569302693148,"94":0.05542773628564985,"95":-0.0037002425007041603,"96":-0.024565419745424723,"97":-0.0029508543344528436,"98":-0.010159661811023716,"99":0.07921165860390479}},{"sx":1,"sy":1,"depth":100,"w":{"0":-0.0817024512766149,"1":0.019996482556934227,"2":-0.09141178383249403,"3":-0.11275209660368513,"4":0.0007663444779057065,"5":-0.04456402449765343,"6":-0.18944763352407115,"7":0.04631623791072801,"8":-0.10660630147511918,"9":-0.14876091726851565,"10":0.07030385165956887,"11":-0.07811564567340168,"12":0.0022346825318769565,"13":-0.07137385770029447,"14":0.0005060249182248776,"15":0.08631343981718044,"16":-0.38520373235302535,"17":-0.1514022579235942,"18":-0.19739496879755636,"19":0.021841536898022876,"20":-0.20559116778100245,"21":0.02361859628384064,"22":-0.09246043672263744,"23":-0.17037862148331462,"24":0.11893436137208252,"25":-0.18194886128516116,"26":-0.24442156486145336,"27":0.25111679791863456,"28":0.04080166809081161,"29":-0.07692830892297796,"30":-0.12810999299495346,"31":0.0763069441303105,"32":-0.03969927996128553,"33":0.09253972207729069,"34":0.14086981612890911,"35":-0.11204637761040334,"36":0.030151595033535816,"37":0.1691474551006394,"38":0.03736123176474819,"39":-0.1767096378848676,"40":0.17252915076684028,"41":0.018618167449323375,"42":-0.08189519782779822,"43":0.16135163037512,"44":-0.03276181238682482,"45":-0.12614306240952763,"46":-0.10620851555004357,"47":0.1026080230603887,"48":-0.051555459044418876,"49":0.13180339402635524,"50":-0.04017037236805276,"51":0.11562025332697802,"52":0.022869810691992058,"53":-0.09612767306792097,"54":0.07086700056942451,"55":0.0677134497370038,"56":0.007307640669001607,"57":-0.12015983379454466,"58":-0.08234377325094944,"59":-0.012316950379311943,"60":-0.023572070538352377,"61":-0.027061257558560023,"62":-0.023929648892498708,"63":0.036755146320055505,"64":0.05848338533441751,"65":0.025085114349010514,"66":-0.13161929841177616,"67":0.007436348205531732,"68":-0.08544572058346254,"69":0.038572454597289065,"70":0.09137016662889055,"71":-0.08939636476682616,"72":-0.055800874341103576,"73":0.10426876463222567,"74":-0.017395092820386978,"75":0.061871477580518364,"76":0.06024346944863043,"77":-0.021895654525640053,"78":0.04777408970393208,"79":-0.0011401536191561156,"80":0.033460221517400954,"81":0.2597989685964511,"82":-0.07941092145951585,"83":0.0034391488024798824,"84":-0.24885617262435686,"85":0.05867128694253126,"86":-0.0020430998302203175,"87":-0.026772082329252968,"88":0.042135066589811546,"89":-0.0739494230285302,"90":-0.1469206001705908,"91":0.09218834906305258,"92":-0.030272296326589607,"93":0.008219568920924738,"94":0.06841291272546833,"95":0.12815068271228797,"96":0.0575734682813192,"97":0.2545603477849323,"98":0.04688485956131803,"99":0.038050703570453814}},{"sx":1,"sy":1,"depth":100,"w":{"0":0.006863580864103048,"1":0.07387514581194733,"2":-0.0482716819472412,"3":0.03011198964628969,"4":0.054270888520586855,"5":0.05418415859768568,"6":0.009992083778233393,"7":-0.1984157855085269,"8":0.17660356563301235,"9":-0.10951231709850238,"10":0.10103936658559323,"11":-0.1624398736176128,"12":0.15217150350056122,"13":0.2027123614712836,"14":0.12840980405358246,"15":0.05301621816055744,"16":0.14501444441170167,"17":-0.08891552216108357,"18":-0.27147923725498135,"19":0.0962061245334319,"20":-0.13531591132378307,"21":-0.17256576783368965,"22":0.10674413648630901,"23":0.07068346893658771,"24":-0.06421893786322055,"25":-0.045590437803229834,"26":-0.0026873678119218357,"27":-0.14430105588599434,"28":0.1049122615525913,"29":0.07888229043720549,"30":0.004688974006012729,"31":-0.08033776312382146,"32":-0.11619474340804535,"33":0.05798955766121325,"34":-0.009525233110383448,"35":0.26303193049730156,"36":-0.29301267667742786,"37":-0.007182675345829934,"38":0.08243554480439161,"39":-0.015211507109848829,"40":0.04865673094725357,"41":0.005700074830501837,"42":0.0341934717076628,"43":-0.09632463155471417,"44":-0.027152789757625813,"45":-0.009098023668248226,"46":-0.02517844308328491,"47":-0.187881418064944,"48":-0.045226539440980915,"49":0.023744544119157104,"50":-0.116873581889268,"51":0.1645129588128927,"52":-0.1537463803098042,"53":-0.11257200712765535,"54":-0.07106912727537527,"55":0.09777937485910773,"56":-0.10806216000115794,"57":-0.18572758897343963,"58":-0.08478169667512012,"59":0.09223640127983199,"60":-0.017796262095832075,"61":0.033761274214609796,"62":-0.04936621433900071,"63":0.059372978467651896,"64":0.09476257993701988,"65":-0.12926795980426084,"66":0.020594334536543805,"67":-0.20257120319409816,"68":0.16353955919816474,"69":0.010414290308644703,"70":0.14580421616253555,"71":0.000002795134127411124,"72":-0.02999463963014359,"73":-0.09031629089180507,"74":-0.16897816451443512,"75":-0.05765818628451794,"76":0.07299480388527049,"77":-0.09833513389315718,"78":0.007696132440660831,"79":-0.1090405518668118,"80":-0.030083436066014383,"81":0.09023474375255955,"82":0.0032490428662458625,"83":-0.04520378040938887,"84":-0.029708859450163154,"85":-0.09404646714440794,"86":-0.1295404314900347,"87":-0.1576711179041346,"88":0.13197909684187153,"89":0.024002134815953802,"90":-0.05832538040759283,"91":-0.01717806282124027,"92":-0.04229715048620948,"93":0.15224030519310078,"94":-0.0376841683907661,"95":-0.008269745981913375,"96":-0.3801088815836623,"97":0.04211125634429859,"98":-0.03827092422458113,"99":-0.11084437455161977}},{"sx":1,"sy":1,"depth":100,"w":{"0":-0.048700449237011896,"1":0.11708033490568692,"2":0.007577233199149218,"3":0.060233882267731784,"4":-0.12596881153837994,"5":-0.020696568172413995,"6":0.1246234857982505,"7":0.05329613565429358,"8":-0.0008237179096038549,"9":0.060800226190280325,"10":-0.13391679616343766,"11":-0.049384596844054746,"12":-0.13009197907335307,"13":-0.007269084648813382,"14":0.07142098007797477,"15":-0.15384580680330084,"16":-0.11971553298745778,"17":0.08388259685524001,"18":0.044067103770816705,"19":0.003621344868087016,"20":0.07802627771944945,"21":0.08699208914689427,"22":-0.11361305023511158,"23":0.11214682835630807,"24":-0.06668570786828293,"25":0.023783873220090443,"26":-0.056511404952621073,"27":-0.06912086746641732,"28":0.18015564654936064,"29":-0.09758227993730297,"30":-0.06292987061780896,"31":-0.028396415350757626,"32":-0.11990905306005077,"33":-0.03858234181775827,"34":0.04786660116242455,"35":-0.007745766478759626,"36":-0.058928479766948136,"37":-0.0379672746161314,"38":-0.11414136761487303,"39":0.25971146862924643,"40":-0.10604400304548518,"41":-0.11133392650379834,"42":0.00910306462902126,"43":0.06568569869653355,"44":0.1803584818522424,"45":0.051180714308344345,"46":-0.027380903458107432,"47":0.09416373688382586,"48":0.09529341077409496,"49":-0.11979536524881967,"50":-0.10895019502075516,"51":-0.07951545265485888,"52":-0.17044337906883922,"53":0.0021096419508777175,"54":-0.28444190547025533,"55":-0.0906251410585323,"56":0.08247732655552396,"57":-0.0937521703580704,"58":-0.009425123523092067,"59":0.03079911874187113,"60":-0.01283937771531579,"61":0.07351689749541952,"62":-0.09293984537704408,"63":-0.0396955603876661,"64":-0.18835104103758343,"65":0.15798190005963642,"66":0.11085658863871926,"67":0.066084249909272,"68":-0.17313373562802473,"69":0.12574774862172855,"70":0.17401134197883264,"71":0.16375992635529293,"72":-0.0026188200712589094,"73":-0.019951498232573563,"74":0.034119599231899216,"75":0.11005588114483553,"76":0.1646941546389016,"77":-0.2149281841879489,"78":0.022461817086133363,"79":0.21460333593045022,"80":0.0301300226985366,"81":0.14546577157205887,"82":0.09623527841881155,"83":0.12186235232636877,"84":-0.12552727640722086,"85":-0.09681925652138881,"86":0.024829953080899695,"87":-0.08574107600509276,"88":-0.07959915147363288,"89":0.19540544302353527,"90":-0.28105411162604543,"91":-0.004941166496785918,"92":0.14078304371276715,"93":-0.13905264445282112,"94":-0.0841455392772967,"95":-0.004883431256212209,"96":-0.02991240252911921,"97":0.04669778864073198,"98":0.006969610625525621,"99":-0.05299393106669331}},{"sx":1,"sy":1,"depth":100,"w":{"0":-0.15710303759903602,"1":0.122119276902622,"2":0.10767368578113991,"3":0.0033331084515995733,"4":-0.09842682126972298,"5":0.06276693321452219,"6":-0.1054421229988128,"7":-0.08478844802681135,"8":-0.12915837298757346,"9":0.04286861021180543,"10":0.08561129522206558,"11":0.06300600700830722,"12":0.10802451301602671,"13":0.05754082391789293,"14":0.06799062004634178,"15":0.1344436514858285,"16":-0.006653540647430739,"17":-0.1529789483626856,"18":0.04270539287247058,"19":-0.19895564875891164,"20":-0.054647537711520394,"21":0.12030348767928638,"22":0.0362212159931641,"23":0.008687964802515723,"24":-0.21708719508710245,"25":0.03601293602869163,"26":-0.20480747107621375,"27":0.04933499731228606,"28":0.04630536422256576,"29":-0.058443376878397166,"30":0.010634491958290037,"31":-0.10031113492811998,"32":0.02663185688673171,"33":0.02872452330434897,"34":-0.18198817710936216,"35":-0.03143658904365247,"36":0.058954404548596136,"37":0.03978013470954887,"38":-0.10574067247118324,"39":-0.0645375498782642,"40":-0.017312365331612317,"41":-0.1281611624326221,"42":0.08724643498121216,"43":-0.016488405016600895,"44":0.08895508004735529,"45":0.06016867101502865,"46":0.04151366554509577,"47":0.08090865219440138,"48":0.1439172123313885,"49":0.020210823996635284,"50":-0.11278977781484727,"51":0.15237460848899265,"52":-0.0070364213595121355,"53":0.05497282345282995,"54":-0.010541908219012644,"55":-0.1096608390888632,"56":0.023275529949851017,"57":-0.19899392860928403,"58":-0.02597979771960279,"59":-0.017752733737287058,"60":0.1467833668288973,"61":-0.13270332121901643,"62":-0.07948235998982743,"63":0.027450255343027002,"64":-0.0524212466331158,"65":0.06851810658757512,"66":0.02171398765036688,"67":0.008037030473981594,"68":-0.11932575223760247,"69":0.031412275835736136,"70":0.021303459288456558,"71":-0.1751005556000739,"72":-0.08590717062934372,"73":-0.05682774023591468,"74":0.06400119942302536,"75":-0.003803124385632861,"76":0.0005312006059401456,"77":0.08558140985098153,"78":0.0005417501810697573,"79":-0.07059568834842347,"80":0.14290674172200796,"81":0.10055235158877084,"82":-0.055192777080114705,"83":0.08105485000242739,"84":-0.007014660066138494,"85":-0.05455217542623425,"86":0.03616121019536042,"87":-0.028512312599453738,"88":0.14329938059222597,"89":-0.15661989425815231,"90":0.03707564998090832,"91":0.00850097872249158,"92":0.011361126837028576,"93":-0.13011194437551882,"94":-0.07495293064325843,"95":0.10484996337209121,"96":-0.022419545314362244,"97":0.02277936554796223,"98":-0.05618555054934351,"99":-0.05287829691041892}},{"sx":1,"sy":1,"depth":100,"w":{"0":0.02548514986046421,"1":0.07532099841757152,"2":-0.044093706947121024,"3":0.038161096357656,"4":-0.012549574354171584,"5":-0.10588597700146445,"6":0.1803076929980906,"7":0.06466880647594278,"8":0.16150663532929344,"9":0.05880692568836085,"10":-0.009663069835218504,"11":0.07610508035419673,"12":0.06700926654178967,"13":-0.039174092850243314,"14":-0.20426796923495555,"15":-0.02073599708219908,"16":0.0018898181607077808,"17":-0.16706706651389927,"18":0.016780837928208645,"19":0.05191498140115994,"20":-0.007161109620487466,"21":0.06523113501423952,"22":-0.017518564949339812,"23":0.01120435252005679,"24":0.09917556558764111,"25":-0.2538592359552469,"26":0.01446336032793753,"27":0.049548499795485874,"28":-0.030121213850650235,"29":0.2352985571809168,"30":0.21585546952924767,"31":0.02167484224305462,"32":0.023007105924930542,"33":0.051044541763956265,"34":-0.1284122726406069,"35":0.15359740365075317,"36":0.05066145270871485,"37":-0.23579876225986177,"38":0.027068763676195425,"39":-0.01649960732968459,"40":-0.00494530295842006,"41":-0.1819846045528661,"42":-0.04514410803954199,"43":0.024857825396139694,"44":0.08606424225064391,"45":-0.1395133483286889,"46":-0.01725618185522747,"47":-0.01682224171769448,"48":0.1449656576956365,"49":-0.05960312308599358,"50":0.08232150952815834,"51":-0.10693667693473057,"52":-0.14464891816835054,"53":-0.10848213537925575,"54":0.03035797246476448,"55":-0.1909969433299428,"56":-0.16333904232938568,"57":-0.1836835475243979,"58":-0.015022398935377485,"59":0.05213535623064842,"60":0.07040882339363394,"61":-0.00005774625425581991,"62":-0.11813087898404814,"63":0.0663979069472918,"64":-0.016675222001612255,"65":-0.02517645420328933,"66":0.14923749058572613,"67":0.0911914686223269,"68":-0.13795353349842407,"69":0.0419484245138137,"70":0.06443398437781582,"71":-0.0036444403200850376,"72":-0.14898127723618104,"73":0.03054642063279292,"74":-0.037828509975045006,"75":0.016634125823240038,"76":-0.04828022909713526,"77":-0.062338943136551334,"78":0.03504509086652084,"79":0.08491199399302736,"80":-0.030625770802707362,"81":-0.014798117955845418,"82":0.03486805777062107,"83":-0.0760524517186752,"84":0.017450635844725424,"85":0.022253732249614466,"86":0.065026372917113,"87":0.0834924777184397,"88":0.12447500467967176,"89":-0.04469655715137548,"90":-0.14736170187840528,"91":0.09146715412491135,"92":0.1104935013398181,"93":-0.17902361740889597,"94":-0.1247905236382976,"95":-0.0380352509587183,"96":-0.021215889349264414,"97":0.0689282019500169,"98":0.01163345699775941,"99":-0.09488849137318849}},{"sx":1,"sy":1,"depth":100,"w":{"0":-0.04221495569224994,"1":-0.08998704177430714,"2":-0.1172306318708797,"3":0.0540574740646585,"4":0.023724603195586197,"5":0.10817859098560159,"6":-0.048628896998344086,"7":-0.118354799693161,"8":-0.11496130588354203,"9":0.017950870189175856,"10":-0.15369183315342697,"11":-0.03500978842708193,"12":-0.08873219697222905,"13":-0.23267693288125996,"14":0.14346019311903738,"15":0.00716385479525593,"16":-0.17436486227007983,"17":-0.1734585019309383,"18":0.07375243226893878,"19":-0.11838407449952822,"20":0.032681955525187226,"21":-0.011627250450714919,"22":0.10649545691084447,"23":-0.042966896979306286,"24":0.006908307233055574,"25":0.06720000509987799,"26":0.009114878253630158,"27":-0.0821904713814372,"28":0.10186175328943022,"29":0.13292344322580665,"30":-0.07831171143009143,"31":-0.16458096388617313,"32":-0.19577071483755693,"33":0.00040668319423106653,"34":0.0054843522162290395,"35":-0.15699648035592415,"36":-0.0423075274981624,"37":-0.05131635978527859,"38":0.11848544670272246,"39":0.06755478169574718,"40":-0.06478829592896518,"41":0.19968198393902992,"42":-0.07152245293489469,"43":0.10471915587517813,"44":-0.017112086612049122,"45":-0.03695592134158865,"46":-0.0636245979438515,"47":0.037246901278243524,"48":-0.02810613216630715,"49":0.05945170166436575,"50":-0.0225618165012771,"51":-0.0149486150920533,"52":0.09092380171765632,"53":0.07160286817201268,"54":-0.21311954464150829,"55":-0.10500984397441032,"56":0.152055326919391,"57":0.0055204800355791285,"58":-0.07924318655388718,"59":0.06305076051819272,"60":0.07369385954649899,"61":-0.08521804935807083,"62":-0.0546450774357377,"63":-0.0396132756571837,"64":-0.009163227346453326,"65":-0.2423477916041462,"66":0.14422482610897572,"67":0.011721160161657555,"68":0.2804042470964549,"69":0.1825608323776315,"70":0.1452792178157638,"71":0.03739120798871344,"72":0.03213924620760893,"73":0.10165551541548357,"74":0.08897730206457853,"75":-0.09390066284248255,"76":-0.0572688147556226,"77":0.08259145289349516,"78":0.39788328037205173,"79":0.2478338845075662,"80":0.04679959113177891,"81":-0.08523563909411973,"82":-0.12070801085339518,"83":-0.13203847885458467,"84":-0.13045746188226934,"85":0.10824123079764625,"86":-0.14144356928090904,"87":-0.27836565193398727,"88":0.09727118486304837,"89":0.028505027212695364,"90":-0.019790094495878662,"91":-0.08530035018700415,"92":0.040516924284813995,"93":-0.07223965399977782,"94":-0.06564816576819084,"95":-0.1365065504516231,"96":-0.2140120192488395,"97":0.2294321260809622,"98":-0.11937860053529809,"99":0.0352703662033684}},{"sx":1,"sy":1,"depth":100,"w":{"0":0.13073545950846358,"1":0.4376889359176734,"2":0.05080230347564472,"3":-0.013974641344326312,"4":0.2536905578840131,"5":0.055825177313782295,"6":0.30843520243502054,"7":-0.009441207231166182,"8":0.14412763256868624,"9":-0.07243328031126285,"10":0.11225011371585832,"11":0.024644068854663196,"12":0.0354730435268499,"13":-0.11931619176768392,"14":-0.044517765778371576,"15":-0.022432815806445836,"16":0.17686755231271264,"17":0.13143487914824478,"18":0.15065706971013743,"19":0.06798093660672966,"20":0.05215743616333111,"21":-0.06561420360750998,"22":0.01963310241584168,"23":-0.029563291706019325,"24":0.0723276493589834,"25":-0.1860184196766478,"26":0.05883557935147313,"27":0.029908359431719753,"28":0.09024704339665351,"29":-0.04492987350176098,"30":-0.012047699434826692,"31":0.16263060183614836,"32":-0.017130223907688702,"33":0.08397218064324467,"34":0.1599907640403876,"35":-0.06587548992343067,"36":-0.08007543735643208,"37":0.05138978988101651,"38":0.004918295950399287,"39":-0.09113392760373688,"40":-0.008882927201965382,"41":0.14457422058123967,"42":0.17293398498060955,"43":0.010849039123138405,"44":0.07685837860369721,"45":0.013985512236705489,"46":-0.03207402778961167,"47":-0.05355569850884758,"48":0.024621146114123273,"49":-0.050707465968701335,"50":0.017048350323113796,"51":0.05355048901564163,"52":0.24242799994271672,"53":0.1023309642667372,"54":0.008238834488148987,"55":-0.014729174346300604,"56":-0.12475979890132095,"57":-0.16625356201225625,"58":-0.022803336046765137,"59":-0.12490373000767609,"60":0.051342458224881815,"61":0.02350376674885865,"62":-0.05052366064014358,"63":0.04274925348661027,"64":-0.06882331264957339,"65":-0.0854465917197537,"66":0.08200363056397438,"67":0.14075090749693203,"68":-0.09151997787978934,"69":0.20889143588862022,"70":-0.04137669123417573,"71":0.05824627824839093,"72":-0.009158859574308733,"73":-0.0487637494397934,"74":-0.033609310197046445,"75":0.17186862437696826,"76":-0.002402860345422584,"77":0.1734851717767122,"78":0.1467449396394505,"79":-0.0032670826469848265,"80":0.02071075050711654,"81":0.02215879703923669,"82":0.06762894933598798,"83":-0.039733701714473865,"84":-0.15665547039718272,"85":0.07718913014262764,"86":-0.001431607197535727,"87":-0.013510906100548501,"88":-0.08843885832521446,"89":-0.01750037590985285,"90":-0.05998313063999044,"91":-0.029765515672401877,"92":-0.1619315588679538,"93":-0.002897775256536112,"94":-0.05454444209117394,"95":0.05262628345809648,"96":-0.04662901256469084,"97":0.052151958124915986,"98":0.06839048808063682,"99":0.05751428931359904}},{"sx":1,"sy":1,"depth":100,"w":{"0":0.06465439045399397,"1":0.5696063484324947,"2":0.01265495481823059,"3":0.14473344668300586,"4":0.4972878580555813,"5":0.05368594655099738,"6":0.062477584048020784,"7":0.11581430397987245,"8":0.010087809179663789,"9":0.1218366537801425,"10":0.037798426987574484,"11":0.026662681755981358,"12":0.03341873397695512,"13":-0.10843641284390428,"14":0.22142540032549698,"15":0.15986403814844685,"16":-0.0920860365124701,"17":0.12997353522578572,"18":0.08099135065704909,"19":-0.18024164365167095,"20":0.07290242185842702,"21":0.10055036643675949,"22":0.021347201678474214,"23":0.09416434437651207,"24":0.034045737954436404,"25":0.2160000586499954,"26":0.042433608237940984,"27":0.13109873625640217,"28":-0.15079360133385988,"29":-0.06761619063110885,"30":-0.02105639235841049,"31":0.27875283070558177,"32":-0.12154020257444996,"33":-0.2181707001166039,"34":0.22141228134278912,"35":0.10297789700924355,"36":-0.1385606476250242,"37":0.13273576812788135,"38":-0.0036888547398007763,"39":0.026453871469722404,"40":0.08414572353499969,"41":0.1564881590171002,"42":-0.19925657058061114,"43":0.06847507356735473,"44":-0.05971136056928029,"45":-0.049936060622446,"46":0.033254057637579874,"47":0.1544967700513736,"48":-0.14481133133699073,"49":-0.13739890052529263,"50":0.12971468720945667,"51":-0.08450345410753593,"52":-0.04366164645868259,"53":0.1222304393934237,"54":0.11475197822634699,"55":0.12832209120963506,"56":-0.04966266721268304,"57":-0.029684623551973013,"58":-0.025989973578873508,"59":0.049986685321648544,"60":0.004078959109574138,"61":-0.016198401961354487,"62":0.00800694917206075,"63":-0.029933624618940096,"64":-0.035752273320463344,"65":-0.003547503001722112,"66":0.28340960947445754,"67":-0.014033129222732093,"68":0.008722333582606682,"69":0.2476977554044886,"70":0.01822104264576699,"71":0.12940288990644666,"72":0.28228284671568316,"73":0.06403590354085525,"74":0.09395819511618637,"75":0.05656913155344404,"76":0.056401389110347935,"77":0.057782729033371845,"78":0.006299165241203643,"79":0.09588647613111433,"80":0.05050452290209384,"81":-0.13510647337330192,"82":0.2485082431674633,"83":-0.09411865571948805,"84":0.11019233524007457,"85":0.02911360012645493,"86":-0.04376788691830285,"87":-0.04618685393711369,"88":0.05489694505528508,"89":0.06205043654058967,"90":-0.008163193953943675,"91":-0.005700015584609826,"92":-0.02216336389457276,"93":-0.013704500558053015,"94":0.07557307773757402,"95":0.013636910446773263,"96":0.08167594578096483,"97":0.16538672004585692,"98":0.04028740314027543,"99":0.006993959720518649}},{"sx":1,"sy":1,"depth":100,"w":{"0":-0.03596329999807057,"1":0.0022117869682224222,"2":-0.012312233363023345,"3":-0.06508313038867,"4":0.004500808663377408,"5":0.010562214019336215,"6":0.09603585020784804,"7":0.1489793587580307,"8":-0.14560166158136753,"9":-0.1333669128904704,"10":-0.013817422983806227,"11":-0.059864480137073496,"12":-0.0034077982890527753,"13":-0.07708256146421527,"14":-0.006541691574882142,"15":-0.10237659223563117,"16":-0.061761622094908375,"17":0.04209403905846403,"18":0.014672341260132572,"19":-0.16913289207829105,"20":-0.03335529947828482,"21":0.1230816274932816,"22":0.0985763624489131,"23":0.010026153840061981,"24":-0.06955326454090918,"25":-0.06730541501570428,"26":-0.007630115279321015,"27":-0.011054666392387273,"28":-0.0003311856370489567,"29":0.023054528245001687,"30":0.05587287822995111,"31":-0.06251551297427023,"32":0.14879493165795196,"33":0.08088465962421496,"34":0.030347083051470648,"35":0.2547620753633304,"36":0.0583309736327009,"37":0.17776946143415254,"38":0.06469836401836018,"39":-0.14662773250376568,"40":-0.07638799617337658,"41":-0.012283291772656583,"42":0.01946223093181078,"43":-0.03368015747027621,"44":-0.010634387894371225,"45":-0.041696269005065976,"46":0.03036225871587324,"47":-0.06985646499341389,"48":0.059859001083443567,"49":-0.09622626022531844,"50":0.07368695138514764,"51":0.1473581172134961,"52":-0.04048777140816666,"53":0.13588092346081618,"54":0.021527068901506335,"55":-0.02399684177281501,"56":0.11224958140097831,"57":0.03188254096179077,"58":0.10855120150730815,"59":0.18303540475990882,"60":0.06537534230032167,"61":0.014875939739914038,"62":-0.11631619852360954,"63":-0.12695676414591725,"64":0.09984861278517895,"65":0.036524859154084405,"66":0.09197660641808811,"67":0.20297574892221987,"68":-0.024379059864989724,"69":0.00748366078534699,"70":0.03845311686412169,"71":0.19818193730786982,"72":0.08057277116500108,"73":0.02930436490516762,"74":-0.05378550291186114,"75":0.0021770246839322356,"76":0.16784531272031547,"77":0.0629742197775386,"78":0.007448340455633727,"79":-0.07253708108239465,"80":-0.03570546555770776,"81":-0.029900860715955907,"82":0.18688272344264284,"83":-0.023796577758616842,"84":-0.044879944725545344,"85":-0.08738463287282984,"86":-0.19527311354534543,"87":-0.12594794867311712,"88":-0.02478022021304235,"89":0.019560599338699827,"90":0.05187196608011834,"91":-0.0857796685425032,"92":0.09390524177235665,"93":-0.052800545501516145,"94":0.06939089681924483,"95":0.08653415745195811,"96":-0.018872912470100277,"97":-0.04571690373681799,"98":-0.07800152658792775,"99":-0.0002659668534290629}},{"sx":1,"sy":1,"depth":100,"w":{"0":-0.06604272793325171,"1":-0.0007268809643494596,"2":0.027721379807072708,"3":0.030905006664712884,"4":-0.009740949425041267,"5":-0.007091257731577522,"6":0.12123635833240935,"7":0.02548010090643342,"8":0.05739383595590076,"9":-0.13013703522686568,"10":-0.19159065030480277,"11":-0.030341350599941808,"12":0.08348615567043552,"13":-0.012641304343118597,"14":-0.015615837092769204,"15":-0.020161650695718892,"16":-0.0926685937647613,"17":-0.07263860201828858,"18":-0.03139838439080687,"19":-0.009281839520267792,"20":0.15842936698111065,"21":0.21717833132912895,"22":0.05310116233773587,"23":0.03717457036654254,"24":0.016775715925312674,"25":0.026112544153688952,"26":-0.019344993671851426,"27":-0.14399549010490287,"28":-0.205920214472902,"29":-0.08513302587833194,"30":-0.11717624460462797,"31":0.17627865647790456,"32":0.013315642602550326,"33":-0.1811708714343065,"34":0.010232089414684143,"35":0.03589176020231727,"36":0.01722148546456339,"37":-0.021081516430584424,"38":-0.050463916106264516,"39":0.0844719592386641,"40":-0.02874715681647251,"41":0.039956745970516225,"42":0.08235161637687619,"43":0.23928226774258043,"44":-0.04676578085962396,"45":0.0522763724094811,"46":-0.05941966263280765,"47":0.08516964562871514,"48":-0.017483225735599624,"49":-0.03394403146195817,"50":-0.26188122195147684,"51":-0.029548271157630167,"52":-0.17795293190104317,"53":0.005320015423376005,"54":0.11447155119204802,"55":-0.17362296690020643,"56":-0.06312843542105258,"57":0.1599942464749902,"58":0.008081984713019078,"59":-0.0022337411208601973,"60":-0.004711117479027058,"61":-0.0026409486402387905,"62":0.010211314105435602,"63":-0.06754389060233701,"64":-0.000675713201247496,"65":0.08693367575969513,"66":0.013244038305271651,"67":0.06788867362128978,"68":0.09490743234387103,"69":-0.061873266289305576,"70":0.269592903076473,"71":-0.04003968582799402,"72":0.07805679512976353,"73":-0.04071914815199453,"74":0.05876874670828552,"75":0.18171486608843146,"76":-0.07485327228540686,"77":0.1299953916675509,"78":-0.01849528302861316,"79":-0.14797019443631065,"80":0.15820363770108548,"81":-0.18953548065267153,"82":-0.04071713991003318,"83":-0.08194936277665994,"84":-0.1179231157774131,"85":-0.15524056435401884,"86":0.02701293831681893,"87":-0.07012231879928527,"88":0.13829311750292106,"89":-0.07797485651436735,"90":0.0024745173710490273,"91":0.1568192173901369,"92":0.09136483450176094,"93":0.09167050605434132,"94":0.0038797140952817944,"95":-0.08156928867918432,"96":-0.06957813584277052,"97":0.016444632046675862,"98":-0.07785967908286358,"99":0.12459644887204296}},{"sx":1,"sy":1,"depth":100,"w":{"0":0.021765198817188493,"1":-0.14200454375462343,"2":0.021851178802483634,"3":-0.040696163632731305,"4":-0.16448825540082565,"5":-0.06235360673343894,"6":0.12025908603020714,"7":-0.02375481694165573,"8":-0.02402253113092077,"9":0.024416892874808874,"10":-0.2227158220189143,"11":0.0692623459249083,"12":0.03907447732295089,"13":0.062150034605542054,"14":-0.09372059127029964,"15":0.006347961248112147,"16":0.02083702234462185,"17":0.00046028218586060805,"18":0.13883790614956423,"19":0.06516437228934324,"20":0.0626807235976801,"21":-0.1720946200513032,"22":-0.11720631940262542,"23":0.02536847464393526,"24":-0.04595793584135412,"25":-0.1841230650781041,"26":-0.10207185794699744,"27":-0.08379007253955165,"28":-0.033063781110856394,"29":0.047710778310335926,"30":-0.07745737370161469,"31":-0.21540286790824076,"32":-0.14868186637298256,"33":0.10528821231957734,"34":-0.05026882233621346,"35":-0.0777534208086866,"36":-0.053993929938324504,"37":0.04539193955045059,"38":0.11531227909424478,"39":-0.002182411821729856,"40":-0.060269603845864224,"41":-0.03726073124080414,"42":0.01760418723111819,"43":0.04307346876162605,"44":-0.17575761051116978,"45":0.0448116477803955,"46":-0.0889123134007863,"47":-0.12570471410150227,"48":0.0484942473538538,"49":-0.002911365800072617,"50":0.0035203822341406247,"51":0.022955067558185868,"52":0.04205893376356026,"53":-0.03153889247226658,"54":-0.2195150101860545,"55":-0.033943910830758324,"56":0.020521620006990923,"57":0.10953759373400684,"58":-0.104147311489314,"59":0.026587068844144107,"60":-0.13153955228763328,"61":0.06366614768466287,"62":0.10999686784228076,"63":0.06240953790470396,"64":-0.07304032888971804,"65":0.012850866247740176,"66":-0.09201692317470736,"67":-0.21878976669527272,"68":-0.10006697330414281,"69":-0.016449807770231577,"70":0.08392824626461437,"71":0.034948534366571055,"72":0.03154403825083562,"73":0.10137086587348029,"74":-0.004862400156989941,"75":0.10698376734140151,"76":-0.0615849495955291,"77":-0.0989965687347507,"78":-0.10085900753794898,"79":0.03759734316655087,"80":-0.012021762623593852,"81":0.14174965877447288,"82":-0.009030012101691293,"83":-0.023175283587546155,"84":-0.0977071769212441,"85":-0.09724380281958743,"86":0.01857231496551106,"87":-0.2347359056898457,"88":-0.10172856466922421,"89":0.035644280833338905,"90":0.13636374219542471,"91":0.09215977206485546,"92":0.05600486268314964,"93":0.02570462856157292,"94":0.014825388091598992,"95":-0.14500226223752422,"96":0.19882889429990844,"97":-0.12051168718091776,"98":0.0428960313980363,"99":-0.10110654603927298}},{"sx":1,"sy":1,"depth":100,"w":{"0":0.024356370945694348,"1":-0.1776892516162477,"2":0.04825335730240862,"3":0.14004086641482402,"4":0.06215143736408616,"5":-0.07358281425255572,"6":-0.07159247626016144,"7":-0.03770880193785157,"8":0.0907315541745265,"9":-0.1064433968185316,"10":-0.036288580930027764,"11":0.1707962713114124,"12":-0.19718807248619408,"13":-0.0638078934102206,"14":0.07171881894299556,"15":0.1382248259704902,"16":0.06099959671887274,"17":0.027049903706170705,"18":-0.1855570925176154,"19":0.11429013553091508,"20":0.11185917736757832,"21":-0.08160845812634908,"22":-0.01763993065000462,"23":0.18388140279899223,"24":-0.10715628082272921,"25":0.11467494542564591,"26":0.011707027962180571,"27":-0.070928131192945,"28":0.017669960388290124,"29":0.19447062199996784,"30":-0.018408954180877422,"31":0.061530877849486604,"32":0.08674916640682975,"33":-0.0063993213145386914,"34":-0.13241119924550518,"35":-0.013393920910979608,"36":-0.06573405242681164,"37":-0.02115798511996142,"38":0.10046953984969484,"39":-0.18250057403910594,"40":-0.08464186718711225,"41":0.06597165199287472,"42":0.03569807816396763,"43":0.08513999745996653,"44":0.10787532731750117,"45":-0.05630419251201305,"46":-0.023863543005066955,"47":0.09282795437132561,"48":0.00043538315618299646,"49":0.04592494350825218,"50":-0.11613078050709429,"51":-0.1409926006717993,"52":-0.016238187493605834,"53":0.05981655622629492,"54":-0.00020208314642417352,"55":-0.12730402718434386,"56":-0.08633713735549452,"57":0.22964635712465084,"58":0.13124250194606055,"59":0.0931543723074615,"60":0.14844086900770423,"61":0.07161346846140046,"62":0.1204488967113851,"63":0.052083729263324274,"64":0.08224513819410637,"65":-0.07967488835372614,"66":-0.06653945712937966,"67":0.1061875740185446,"68":-0.02131352796230182,"69":-0.014893694566950161,"70":-0.18937928395742049,"71":0.023661861689161724,"72":0.13638443439269238,"73":0.06525871099116512,"74":-0.011605537437426549,"75":0.04352700941350599,"76":0.12419337829656749,"77":0.08160985681283708,"78":-0.27311914076704885,"79":-0.03754663611286717,"80":-0.13538117059510837,"81":0.04975221865339966,"82":0.24050604621026989,"83":-0.07744972250969374,"84":-0.06332240627929939,"85":0.12765417844543273,"86":0.00876103297006151,"87":0.22741621086524344,"88":0.16926782262463497,"89":0.03550020603532509,"90":-0.023038358278991134,"91":-0.14103262850373222,"92":0.07681031760150053,"93":-0.039929037032982624,"94":-0.20213470737318373,"95":-0.08635883862356113,"96":0.04737040187600251,"97":-0.04309235777649668,"98":-0.02703976562543445,"99":-0.05551052886354173}},{"sx":1,"sy":1,"depth":100,"w":{"0":0.02295099986541935,"1":0.05174108542766576,"2":-0.19638465774449262,"3":0.26406879210689416,"4":0.10988684466975396,"5":0.18422575535978739,"6":0.05036229720818619,"7":-0.05555061620765442,"8":-0.06540191801990053,"9":-0.08648319506703114,"10":0.09463664784371806,"11":0.11877690629785384,"12":0.00866240861281207,"13":-0.06690723020670963,"14":-0.005063417825979458,"15":-0.03756305964216239,"16":-0.015667779353165556,"17":0.18688455579184127,"18":-0.20920627445972148,"19":0.02500785440853512,"20":0.039540238542195315,"21":-0.07961785247405095,"22":-0.0307992490195397,"23":-0.06104124985687702,"24":-0.20354879587330296,"25":-0.027535378809638814,"26":-0.03802469465409818,"27":0.0032908894599128925,"28":0.04114422399173218,"29":0.08021656461837194,"30":-0.10982141206205967,"31":0.10296042401843179,"32":-0.06434485608884503,"33":0.03159034296077866,"34":0.051355594858133874,"35":0.08703371050066432,"36":0.0046052920330196786,"37":0.15542143878050388,"38":0.12419089696089983,"39":-0.16694711380367422,"40":0.14002986112317148,"41":-0.11392540034465129,"42":0.029831218994120775,"43":-0.1377209699095092,"44":0.07983590902015708,"45":-0.037633530975180234,"46":-0.1456529362348845,"47":-0.12820620272356026,"48":0.0077637006710574,"49":-0.058804549181670426,"50":0.09327739371691206,"51":-0.11035558009725481,"52":-0.12965262924567292,"53":0.04272129486523183,"54":0.013590461817253659,"55":-0.10521976471147765,"56":-0.07581213146335596,"57":-0.15525277482046845,"58":0.01415072069568546,"59":0.028672492391430632,"60":-0.029162846778307827,"61":-0.15644086060024803,"62":-0.012131654446077828,"63":-0.10240478995609144,"64":-0.025964970135395428,"65":0.10403815700928713,"66":0.0287060538688415,"67":0.017800724469768017,"68":0.11567112163130211,"69":-0.03616273475809792,"70":0.0036199538457784316,"71":0.02272485008704772,"72":-0.011880965274520903,"73":0.04792471956522127,"74":0.014883565981956623,"75":-0.043078694646938184,"76":0.12183026974332482,"77":-0.06697697297512024,"78":0.02637973286556774,"79":0.010073236650225878,"80":0.03716062699356449,"81":-0.20462909403074983,"82":-0.027763779733340176,"83":-0.07392438263099746,"84":0.08530723208508965,"85":0.14034033703298862,"86":-0.15465902856900438,"87":-0.0226297170801259,"88":-0.015392807428135796,"89":0.04862022180663719,"90":-0.03688803049379286,"91":-0.020781545754751395,"92":-0.20661039145450008,"93":-0.06239994702242317,"94":0.062369192952853085,"95":-0.09845721639232904,"96":0.013832731033112208,"97":-0.0044310595039029595,